{"checksum":"sha256:aa55e7c9c4ce86b1c630407f2675c5c7781cfdcf1f7496a675ee7b72d2ceb2e8","hiddenActivation":"relu","layers":[{"biases":[0.14562732,-0.25022194,0.05885269,0.25262138,0.4640187,-0.14458886,0.01950335,-0.19100977,0.16643186,0.10863768,0.53846884,0.46116713,-0.23744252,0.17509618,-0.37021101,0.1885415],"weights":[[-0.00797376,0.02742549,-0.03086784,-0.00704525,-0.00267916,0.01963022,-0.01677758,-0.03120497,0.00866509,-0.01868802,0.01023132,0.00711745,0.20348375,0.24333167,-0.01598179,0.02400264,0.02535289,-0.02807381,0.01434405,-0.01442722,-0.0192565,-0.00607363,-0.0322931,-0.02032404,0.00541755,-0.01681739,-0.01723253,0.00210337,-0.00455523,-0.01062486,-0.01027723,0.00443119,0.12317894,0.16952153,0.15279223,0.26466012,0.12719284,0.1345754,0.22286828,0.03145631,0.04881322,0.00070272,0.46729031,0.40782073,-0.26329386,-0.16926809,0.34920147,0.30457851,0.31154266,0.24681734,0.21012607,0.2867294,0.00352192,-0.01473038,-0.03307663,0.0286348,-0.01999439,0.01956505,0.32600403,0.02605978,0.13711508,0.2943404,0.40632331,0.02184227,0.34734994,0.40019295,0.10608976,-0.01484281,-0.01755761,0.34062177,0.27141282,0.35201803,0.2840119,0.04065409,0.13605116,0.18060875,0.18844,0.07375537,0.27941683,0.32933483,-0.1728145,-0.0425445,-0.01364513,-0.02479647,0.01823432,0.02605079,0.35688782,0.16781421,0.21151061,-0.08294565,0.0171898,0.2363365,0.24938133,0.20036712,0.00102504,-0.21846098,-0.05998228,-0.03114095,-0.23662914,-0.01008396,0.06583517,-0.26698768,-0.22312555,-0.06973077,0.03203006,-0.06032486,0.04635849,0.24943696,0.1269366,0.27375719,0.08565955,-0.02428392,-0.02240899,0.02968298,0.06227843,-0.01061773,0.34156519,0.1151133,0.06571436,0.16366287,0.19324063,0.06673767,0.0349008,-0.09280095,0.05029821,0.044674,0.12447405,-0.1507217,0.08673979,-0.06209205,-0.06864244,0.13367453,-0.08648691,-0.06397999,-0.18465415,-0.00585755,0.04852549,0.08335563,0.50084645,-0.30619341,-0.01027461,-0.0279803,0.28283176,0.18852243,-0.06118151,0.16504371,-0.08964296,0.12580243,-0.28628951,-0.1525031,-0.19641748,-0.22113372,-0.04823647,-0.02654484,-0.02221441,0.00450642,-0.04268232,-0.05412132,-0.03351285,0.1039859,0.23184769,0.27342752,0.14602415,0.11299254,0.22042646,0.36347333,0.34995857,-0.14811906,-0.00388674,-0.04880023,-0.16766615,0.01800895,0.00677319,-0.18153706,-0.07889809,-0.01647498,0.0178559,0.07695562,0.02048681,0.01314238,-0.00452507,-0.17235938,-0.08704898,-0.08932574,-0.03095507,7.717e-05,0.04048936,0.12779154,0.17407015,-0.00143846,-0.11504196,0.07041257,0.14336613,0.78982788,0.22908999,0.07339873,0.00988505,-0.22976296,-0.37780112,-0.185875,0.16606295,-0.20560636,-0.21291202,0.09409212,0.3206991,0.12347188,0.1548682,-0.10200298,0.00819074,-0.15016542,-0.18351141,-0.15329956,0.0874915,0.00157205,0.12921688,0.08400485,0.13075447,0.10957685,0.07241178,-0.07256624,-0.25765362,0.30201638,0.05703136,0.01168965,-0.40731901,-0.04723536,-0.16619304,0.08376113,0.01995556,0.05197475,0.05726536,0.32654953,0.26013857,0.1408933,0.22236186,0.10374396,0.1382792,0.30558154,0.11304203,-0.06076003,-0.09299271,0.14466453,0.14337163,0.16979031,0.11307802,0.03151925,0.11527711,0.06343665,0.11077178,0.28836319,0.35024494,0.46009132,0.07663345,-0.01833295,-0.37799075,0.05700858,0.30913287,0.16435163,0.21648571,0.42676839,0.33749065,0.23756321,0.16807631,0.29500449,0.29191914,0.31799823,0.24482192,0.09220672,-0.01391157,0.07512397,0.09377809,0.05687557,0.02024527,0.24345616,0.30040088,0.18647665,0.1437899,0.47823086,0.54690158,0.00326982,0.08717742,0.14504963,-0.22793907,-0.00636415,0.26218447,0.21587887,0.21801847,0.30016628,0.33352754,0.32233655,0.49431223,0.47245982,0.39112416,0.36076933,0.28356129,0.21147969,0.00549634,-0.10668276,-0.03272613,0.09564061,-0.00122681,0.12376595,0.11716079,0.20884247,0.15975377,0.11960046,0.57931054,0.04105008,-0.08779901,-0.21627051,0.01496416,0.30568939,0.54216421,0.45208475,0.21480364,0.36994034,0.20428465,0.30650091,0.24623619,0.17390715,0.20080936,0.25146091,0.31820428,0.21121883,0.09577318,-0.04726287,-0.00596708,-0.01388787,-0.04986807,-0.03713233,0.03167424,0.25643784,0.26896024,0.20378464,0.57939434,0.34781352,-0.09580684,0.01438167,0.05273437,0.38282135,0.30852795,0.35548514,0.11415444,0.26097947,0.08915986,0.14677767,-0.06042939,-0.12761317,-0.03039069,0.13433999,0.31175658,0.2605662,0.10749339,0.09012713,-0.05608007,-0.08615064,-0.13907267,-0.25430551,-0.21924764,0.1282517,0.04525533,0.0809473,0.48391566,0.56481844,0.25880387,-0.00387082,0.32198578,0.25549695,-0.13427757,0.01045881,-0.1148977,-0.23520654,-0.11977445,-0.03217317,-0.29722905,-0.10849725,0.00598233,0.2138121,0.26284969,0.33320701,0.22886321,0.13755684,-0.11077649,-0.09303723,0.0873106,-0.229717,-0.23222803,-0.21337178,-0.14228132,-0.13715529,0.35100722,0.2993153,-0.01068861,0.06779169,0.43895528,0.26959711,-0.48948419,-0.27702296,-0.39759958,-0.57839388,-0.30093744,-0.27236429,-0.17550124,-0.09850784,-0.01356422,0.22448999,0.3553353,0.26654315,0.21291663,-0.00646922,-0.14929783,-0.15416887,-0.08135934,-0.15743415,-0.21946543,-0.28677592,-0.2269278,-0.27069917,0.46952057,0.14363849,-0.00612781,0.29503,0.42837396,0.06214668,-0.45891753,-0.42020649,-0.20600446,-0.50487274,-0.25786653,-0.17801017,-0.14378892,0.116396,0.24207285,0.42929724,0.45516095,0.16069637,0.20965403,-0.14976315,-0.05109948,-0.06979568,-0.16830952,-0.14393042,-0.23125675,-0.34333524,-0.23225518,-0.16760755,-0.18944339,-0.03701486,-0.10170557,0.19386061,0.34546632,0.03838199,-0.30504179,-0.21608739,-0.0506871,-0.39655668,-0.38314927,-0.20722717,-0.0264419,-0.02667717,0.18914145,0.33482742,0.31201655,0.01068179,0.02304826,-0.22386402,-0.13833322,-0.18522538,-0.32033634,-0.2333699,-0.16176827,0.02905984,0.09534721,0.02176697,-0.03008108,-0.36721337,0.00912973,0.27595532,0.05308108,-0.14544776,-0.08324169,-0.01989456,-0.02763733,-0.2940923,-0.20647456,-0.14989915,-0.07551488,-0.01722644,0.07097536,0.21226028,0.23525411,-0.0159314,-0.10188344,-0.19177236,-0.21901661,-0.12297572,-0.11354858,-0.07527783,-0.09265223,0.15895788,0.22475407,-0.17896999,-0.0083756,0.08825997,0.14122368,0.20298812,0.50578952,-0.21359371,-0.06447508,0.01778797,-0.09703502,-0.20013714,-0.16110933,-0.01942644,-0.05704024,0.01179834,0.11495121,0.11546299,0.02267915,-0.10110985,-0.27183229,-0.17941128,-0.15232822,-0.16555302,0.03974109,0.01729035,-0.07414082,0.15709271,0.23271148,0.01833178,0.23687738,0.32550848,0.27513391,0.31367069,-0.11554256,-0.52393246,-0.05375371,-0.19875255,-0.01724952,0.1007259,0.04597318,0.1546264,-0.01322969,-0.15125582,-0.07375001,0.06793185,-0.01867159,0.00797491,0.03850323,-0.07105667,0.02108937,0.1018501,-0.04085075,-0.01985038,0.04599104,0.35293952,0.08475287,0.15506566,0.16417712,0.31168869,-0.02302847,-0.16180526,-0.18706325,-0.21103869,-0.02666499,-0.22616187,0.10815249,0.22613128,0.22333433,0.13742588,0.09396251,-0.03971103,-0.08108012,-0.01181073,0.02940587,0.04508913,0.02570979,0.18331498,0.18665078,0.21158408,0.20737453,0.28317833,0.2955842,0.40417913,-0.06267215,-0.10433619,0.07969809,0.16410598,0.27795568,-0.34680593,0.10776646,0.05015843,0.17902191,0.17324883,0.28482422,0.32789916,0.19595861,0.12371441,0.14375329,0.08363941,-0.03882951,0.05629347,0.23201312,0.23879573,0.11629248,0.30271649,0.29397893,0.24171306,0.24629608,0.1926626,0.21623227,0.16319105,-0.04080553,0.14873485,-0.48832577,-0.09471202,0.31851301,0.20320074,0.08310149,-0.03176799,0.45390323,0.41867009,0.35451514,0.18884933,0.18781611,0.14854831,0.1108818,0.0445687,0.00567046,0.0342277,0.17155311,0.16441463,0.03629627,0.23457901,0.31620046,0.17508686,0.23228802,0.10555539,-0.02960777,-0.07323989,0.02864302,0.21296063,0.30877411,-0.09077719,0.00589945,0.02371393,0.24965544,-0.4206019,0.17749776,0.21854657,-0.06459857,-0.17190735,-0.00356543,0.14230308,0.05669073,0.04257756,0.17462768,0.18895823,-0.04967401,0.10829686,0.16045491,0.30248585,0.2446392,0.3192834,0.2227376,-0.08565523,-0.10461996,-0.16657495,-0.161616,0.1466962,0.53407162,-0.01515353,0.01982909,0.0050447,0.08886569,-0.21853441,-0.44412455,-0.11602656,0.06183248,-0.1002593,0.02147383,0.09799977,0.13580766,0.20544779,0.05941019,0.09718817,0.0887705,0.20663245,-0.06225719,0.0816602,0.16876094,0.43708137,-0.07209601,-0.24422123,-0.34245551,-0.21951032,-0.13436541,0.03195554,0.33420244,0.03538449,-0.00277237,-0.00218446,-0.26861316,-0.2475924,-0.24829429,-0.22743872,0.03700401,-0.11124186,0.02610473,0.11378605,-0.05770271,-0.03863759,0.34449109,0.23120412,0.24700409,0.08091189,-0.05853697,0.03432273,0.09791299,0.03926224,-0.22472349,-0.24502183,-0.18356864,0.02145437,0.40263665,-0.27057847,0.02559267,-0.00960584,-0.0058144,0.03555789,-0.03014022,-0.11620265,-0.17901137,-0.09993985,-0.27429765,-0.29708153,-0.1962107,-0.29295811,-0.1979996,0.13646065,0.03103017,-0.04267929,-0.35075897,-0.23827235,-0.36479455,-0.01554994,-0.04413019,-0.1946594,-0.42413062,-0.2749615,-0.26961648,-0.07883856,0.18876119,0.12114713,0.02216273,0.00270703,-0.01620129,0.02911396,-0.00385099,-0.01531259,0.23484339,0.17249152,0.14815044,0.13960671,0.18400308,-0.07014814,0.1225306,0.05503498,-0.17879996,-0.01205433,-0.03834939,-0.2323776,-0.18844301,-0.26849198,-0.34352946,-0.30598375,-0.30910629,0.06385522,0.19585353,0.30841547,0.02942934,0.03398227,-0.03073289,0.01174894],[0.0147579,0.01047624,-0.02056363,0.01794394,-0.00173614,-0.01974626,-0.03336493,-0.02138203,-0.03421754,-0.0158604,0.00798589,0.01572366,-0.02586814,0.00225248,0.18063654,0.14558056,-0.03127959,0.02522448,-0.01455567,0.01249727,0.02626528,-0.02607209,0.00900311,-0.02837242,-0.00929927,0.01004269,0.00942683,0.01788632,0.00893744,-0.00732192,-0.01710038,0.00541568,-0.18428014,-0.08358642,0.12419609,0.13201633,-0.06984218,-0.28698474,-0.4102492,-0.42521244,-0.42727354,-0.4806968,-0.12932031,0.01895233,0.02822347,-0.2971366,-0.53643864,-0.36632362,-0.20970768,-0.03702224,0.16292137,0.07823938,-0.02969023,0.01874926,0.01713607,0.00141469,-0.00815504,-0.02533838,0.12870046,-0.01374889,-0.27370581,-0.13100512,0.00553249,-0.0058601,-0.36106652,0.17641,0.28717077,0.13160175,0.14940754,0.34440765,0.07773652,0.10074634,0.2076714,0.01266772,0.14311759,0.08669929,0.00714783,-0.19223678,-0.1727151,0.13312422,0.16814375,0.2377069,0.02894347,-0.0293922,0.01694191,-0.00935432,0.30678058,0.33706936,-0.10513148,-0.01739626,0.20028722,0.3237088,0.44489953,0.37445253,0.43652049,0.55952674,0.61772704,0.3456322,0.26007205,0.37266392,0.38549116,0.23275657,0.15158807,0.21657273,0.23372996,-0.05318961,-0.33995837,-0.32583106,-0.04554483,0.11013608,-0.15103099,-0.01525651,0.0250257,0.12271595,0.39353555,0.45965618,-0.17512368,0.26271859,0.36094275,0.19702202,0.4140794,0.25416073,0.34697631,0.34287235,0.35724571,0.27687761,0.27928728,0.21020654,0.36590981,0.16573924,0.27011093,0.22322823,-0.05464044,-0.11955086,-0.26390448,-0.5157876,-0.16321996,-0.30433521,0.08643027,-0.18920755,-0.02553234,0.01842996,0.39482349,0.47254777,0.03951115,0.31176746,0.1187956,0.23830052,-0.01628323,0.03350357,-0.0003379,0.01199917,0.14878665,0.07482597,0.05851604,0.2757788,0.35942906,0.13794045,0.17958145,0.08545564,0.07792483,0.0532966,0.04659307,-0.17933075,-0.25128168,-0.31368306,0.05325266,-0.2170479,0.00256992,0.25426859,-0.04697502,0.49246705,0.10637549,0.11667707,0.2557905,0.05235585,0.0139051,0.14320655,0.19474441,0.07795453,0.12159552,0.061056,0.06177397,0.10940494,0.15678579,-0.063372,0.03996749,-0.09771247,-0.08471008,-0.1027094,-0.11522925,-0.13911164,-0.09629278,-0.18027039,-0.05959744,-0.20945579,-0.01769697,0.42599335,-0.17269045,0.43084595,0.56467646,0.23047888,0.16157112,0.00877457,0.07735842,0.05368539,0.03211099,0.07909015,0.08467995,0.00781117,0.02444323,-0.03907752,-0.02578868,-0.12259323,-0.11950705,-0.00183996,-0.07314254,-0.1381658,0.06787467,-0.18025498,-0.43404794,-0.05738723,-0.14539713,-0.15086243,-0.03062644,0.02990108,-0.11419194,0.25748029,0.49596423,0.07075919,0.05657877,0.10467675,-0.11190124,-0.06938247,0.04353188,-0.10309994,0.05999108,0.13151036,0.04282611,-0.01998278,-0.12536804,-0.05594829,-0.09294306,0.01337692,-0.09780298,-0.10617561,0.11519607,-0.21141756,-0.62809789,-0.15329948,0.26853615,0.20082222,0.04645946,0.0362843,-0.01896453,0.17890859,0.57225162,0.20155555,0.10415173,0.04835246,-0.22088283,-0.26466617,-0.33310398,-0.28705731,-0.16375108,-0.03739575,0.06283901,0.11014606,0.02385996,-0.06079296,-0.04186284,-0.00042878,-0.03207644,0.01322186,0.15299878,-0.30301178,-0.93381482,-0.24632627,0.28390241,0.30581608,-0.00742676,0.19420147,-0.06841484,0.06864951,0.19378334,-0.0240085,-0.10344949,-0.32302186,-0.42363641,-0.56413752,-0.39157453,-0.25403976,-0.25347972,0.02507662,0.06212753,-0.00388792,-0.02379288,0.01177289,-0.04122264,0.10989209,0.11806086,-0.01491695,-0.16802442,-0.23856294,-0.52386558,0.07580353,0.02851608,0.31754458,0.07050776,-0.04685038,-0.2389217,0.0283413,0.00159185,-0.34643382,-0.49412358,-0.58623427,-0.45661479,-0.35114753,-0.31635994,-0.22252873,-0.05447242,0.13522357,0.23909737,0.06125981,-0.13649262,-0.07757667,-0.03022779,0.11863024,0.09014978,-0.1788694,-0.23759055,-0.1254037,0.0268288,0.20205984,-0.04036928,0.43523079,0.06359817,-0.2022516,-0.28099379,-0.11672129,-0.35412362,-0.71243316,-0.83862919,-0.40889594,-0.26663676,-0.10128786,-0.05362494,-0.10235712,0.13476942,0.24688618,0.26243305,0.08749989,-0.04240828,-0.05742188,-0.00310068,-0.03497536,-0.12434331,-0.23907253,-0.37019539,-0.33484203,-0.20384656,0.02098549,0.42983842,0.36335728,0.22645965,-0.22570376,-0.22085907,0.11969767,-0.52061814,-0.69164294,-0.51338291,-0.21358138,0.05014108,0.08745979,-0.03646946,-0.06396388,0.14376698,0.29368398,0.24282759,0.0628689,-0.0113975,0.00989354,-0.06067083,-0.10777426,-0.09851213,-0.16570988,-0.43394685,-0.39274544,-0.35372177,0.00292927,0.59530652,-0.06219355,-0.2948074,-0.19672452,-0.16538146,0.32823899,-0.15521514,-0.34369141,-0.13633503,-0.06251437,0.01715889,-0.01894234,-0.19307117,-0.11098996,0.0920295,0.21490999,0.40048823,0.09792985,0.0370928,-0.03121245,-0.08547045,-0.04068905,-0.1134633,-0.06319211,-0.04639982,-0.21063028,-0.10889371,0.02438224,0.7530297,-0.30713817,-0.23753418,0.19360526,0.13581152,0.2256062,0.06776237,0.06959434,0.16630696,-0.15254913,-0.21935965,-0.15140188,-0.31396377,-0.16228431,0.01288788,0.27525216,0.41010642,0.13455753,0.0187974,-0.16547287,-0.17579831,0.02296858,-0.14724709,-0.02573417,-0.09277442,-0.17426854,0.11714534,0.34713078,0.53374135,0.40318775,0.0282277,0.4039574,0.31671348,0.34921944,0.35810906,0.16681488,0.10439771,-0.19102055,-0.2473983,-0.16016552,-0.20755361,-0.39361858,-0.12837242,0.30850795,0.34031329,-0.02486303,0.03905047,-0.04178295,0.00620359,0.09425583,-0.02074822,0.0213466,0.07278121,0.06123652,0.3066588,0.55552012,0.43026707,0.46630487,0.01676009,0.40764156,0.12105508,0.32712126,0.32012635,0.22924021,0.15653431,-0.09817514,-0.1374463,-0.2636075,-0.30364558,-0.39629883,-0.18354037,0.07963702,0.0947613,-0.02784871,0.05968986,0.09330434,0.13437803,0.18742886,-0.05378543,-0.01030904,0.09125026,0.15480588,0.15055521,0.35621017,0.17099993,0.48075396,-0.18405361,0.26961666,-0.02244243,0.5316925,0.20834193,0.37507328,0.25310412,0.05117209,0.00026147,-0.00820476,-0.07557156,-0.1908946,-0.23934127,-0.02224392,-0.02423148,0.02623042,0.13985001,0.1321713,0.15247935,0.22647963,0.07965884,0.25830054,0.20837867,0.20474866,0.36466065,0.53440613,0.25468409,0.33832133,0.12198394,-0.17185479,-0.32248196,0.25043362,0.26159215,0.26585436,0.32828683,0.24096127,0.08725706,0.19805942,0.1685061,-0.05326556,-0.08399428,0.17204329,0.1010301,0.16420849,0.2111609,0.20986983,0.13889119,0.08980308,0.04856211,0.16163759,0.1932973,0.32412684,0.2516706,0.55570453,0.37459847,0.24176705,0.00548117,-0.14925754,-0.10111043,0.2752111,0.26338914,0.18926077,0.3613573,0.27184999,0.13835132,0.17714524,0.00079056,0.04613793,-0.02814868,0.07410827,0.15511976,0.12010673,0.13810576,0.16814803,0.21434066,0.07787539,0.27384222,0.25078341,0.24785972,0.43374032,0.04755197,0.10667925,0.13882184,0.04790011,0.20743822,0.07446278,0.57011771,0.34160873,0.03286444,0.03294232,0.12952977,0.04306894,0.07323954,-0.01322107,0.00850458,-0.00138999,-0.02445372,0.03395052,0.07707936,0.0838793,0.14074352,0.15600666,0.14577717,0.21458401,0.07832707,0.07962009,0.11795998,0.27356967,-0.04617406,0.1637733,-0.03623433,-0.03191002,0.24592024,0.08894455,0.56741786,0.37704211,0.15215996,0.10317527,0.03658377,0.01732706,-0.01402143,-0.05033213,-0.00845734,0.03564878,-0.07191374,-0.13826105,-0.02017102,0.10833672,0.02501799,0.17948633,0.11192305,0.11108927,0.21456639,0.11667859,0.0211179,0.14388289,-0.05378178,0.04599549,0.04205637,-0.04944069,0.01687022,-0.00165452,0.58601958,0.51955128,0.21906953,-0.00833286,-0.21509317,0.05284579,-0.07957973,0.04783368,-0.02607951,0.0921042,0.01810813,0.07872019,-0.03510864,0.09552978,0.07482849,0.07487124,0.10675398,-0.01602399,0.11601244,-0.09048792,0.02425028,0.19127576,0.12110837,0.04154426,0.3757658,-0.02344508,-0.01282198,0.02509737,-0.00571619,0.40336695,0.08058037,-0.20237419,-0.04507066,0.00304137,-0.05238541,0.05952978,0.03073974,0.19223501,0.11818696,0.0841652,0.26436341,0.08058616,0.05654377,0.16265294,0.02955368,-0.05692443,-0.10932276,-0.01799365,0.143463,0.12239455,0.10500938,0.33197331,0.29579765,-0.02824193,0.00814706,0.02452045,0.04563935,-0.2912401,-0.13474882,-0.08281826,0.12652805,0.08881963,0.11737224,0.15839969,0.10806531,0.04247701,0.26562649,0.16376171,-0.00904084,-0.13875632,-0.01301586,-0.22503757,-0.06375006,0.11920394,-0.21096206,-0.53507835,-0.42520168,-0.30441347,0.02919019,-0.26135874,0.03141791,0.02812544,-0.03103673,-0.00086341,0.02469148,-0.06423374,-0.06878823,-0.01582832,0.01069012,0.06789226,0.13764429,-0.03603648,-0.07662463,-0.36087826,-0.43979675,-0.26551542,-0.27939534,-0.06842549,-0.04322115,-0.01950415,0.09694874,-0.03653831,-0.0220884,-0.08955713,-0.17623614,-0.01775497,0.0177778,0.00858123,0.00248892,0.01306373,-0.02315351,0.00938369,0.02682625,-0.02487352,0.01432994,0.00616997,0.04763626,0.04545779,0.03777892,0.02709285,0.26841623,0.17140606,-0.06240575,-0.02505041,-0.05390596,-0.06266272,0.03618236,0.12469968,0.03775875,-0.05067311,-0.03816601,-0.0453875,-0.07219288,-0.0007186,-0.03357953,0.02979106,-0.00012181,-0.03430974],[0.02557455,-0.02270908,-0.01144007,0.02366051,-0.03192081,-0.01492211,-0.00523026,0.02160362,-0.03464754,-0.00196846,0.01383671,0.00127817,-0.15220587,-0.19696118,-0.05447039,-0.06853569,0.02459084,0.00223838,-0.03214486,0.02708923,-0.01628908,0.01342266,0.0253208,0.02748524,0.03193026,0.01819797,-0.01526342,0.02708528,0.02270436,0.01748304,0.00061592,0.03279901,-0.02043962,-0.13507116,-0.25114596,-0.23917505,-0.21494532,-0.04063107,0.00261148,0.08854728,-0.15882337,0.12124009,0.17518595,-0.28158194,-0.17229758,-0.23145223,-0.56515002,-0.33786926,-0.38362595,-0.20482564,-0.19337569,-0.20236087,-0.03405214,-0.02986127,-0.00050556,-0.01889968,0.01249349,0.01797686,-0.14978109,-0.18474653,-0.14515898,0.0867906,0.02719922,-0.17560567,-0.19498824,-0.12489889,-0.35808527,-0.44660649,-0.16628623,0.16517173,0.14541243,0.02329849,0.1632615,0.22188219,0.15756135,-0.1905899,-0.29313385,-0.47807688,-0.3551456,-0.54388756,-0.47246951,-0.33129975,-0.00296302,0.03367738,0.02129902,-0.00351616,-0.17813301,-0.1884495,-0.05918006,0.28006992,0.13885228,0.11287734,0.02684551,-0.23472017,0.15517098,0.34552965,0.19101973,-0.0988818,0.20233397,0.07377854,-0.01964038,0.10136256,0.10473917,0.08512487,0.37822914,0.11496665,-0.34323287,-0.38211429,-0.26348197,0.14416276,-0.05129073,-0.01030907,0.03266327,0.06364378,0.29719558,0.27677163,0.13926849,0.16644737,0.0296913,0.11661137,0.07168102,0.22824612,0.41158527,0.47755089,0.3499954,0.28235599,0.22000845,0.35636178,0.20943841,0.05120978,0.28413069,0.17901312,0.08588861,0.09532583,-0.03393715,-0.31442621,0.14776193,0.1240559,0.29624215,-0.36254576,0.03551356,-0.03150289,-0.10044123,0.16105288,0.11886198,0.03536025,0.04750802,0.14635047,0.15310152,0.25730425,0.24563242,0.43819821,0.27534813,0.20674253,0.13301843,0.27230963,0.14319195,0.09134465,0.02014334,-0.04354756,-0.05932789,-0.21483496,-0.13817154,-0.30464888,-0.13608018,0.2196945,-0.04997846,-0.34230483,-3.179e-05,0.24973008,-0.0780485,-0.09119996,0.22546859,0.16312793,0.04219811,0.0172676,0.16941459,0.17542651,0.09452945,0.01527514,0.12658438,0.31179783,0.19945435,0.23065443,0.28269413,0.1061591,-0.07791318,-0.1398797,-0.10922031,-0.21069486,-0.05720522,0.11599332,0.12587638,0.38502461,0.29782283,-0.20705165,-0.03052048,0.20938283,-0.28027007,0.054617,0.22056586,0.12793489,0.022797,-0.22382669,-0.0028364,0.09561269,-0.01612834,-0.05353297,0.01181614,0.16730206,0.19248037,0.35982183,0.21607287,0.10681251,-0.15400395,-0.15778805,-0.01200383,-0.13078611,-2.585e-05,0.23356065,0.31488082,0.38608009,0.38652584,-0.16928598,0.0368028,-0.47888356,-0.05823294,0.10352314,0.19415292,0.04047835,0.02443744,-0.10251274,-0.01887081,0.11961566,0.0757789,-0.10102605,-0.10349309,0.04549874,0.09709915,0.25155607,0.29065761,0.0880148,0.1490051,-0.00060691,0.08420106,0.11886819,0.05961848,-0.0426342,0.49283367,1.00214672,0.65454161,0.40211153,-0.20912501,-0.18602848,-0.17046742,-0.05426106,-0.06545165,-0.20885098,0.06231509,-0.03196864,-0.04988969,-0.09097126,-0.10064368,-0.22118732,-0.21132344,-0.11216769,0.06217287,0.19594887,0.41470149,0.30235523,0.20687465,0.09292485,0.13347192,0.16346888,0.21235579,-0.00894056,0.30648202,0.7716499,0.42714643,-0.29152086,-0.17172886,-0.19763078,-0.34830713,0.06316577,-0.08313969,-0.39613813,-0.24145146,-0.11742201,-0.04243078,-0.11676046,-0.20591545,-0.24821191,-0.12988026,-0.17196222,-0.08229443,0.09800869,0.34185612,0.20821427,0.1625894,0.11344079,0.16808803,0.0215699,0.19004285,0.03326149,0.09322202,0.17083573,-0.1614293,-0.10240442,-0.17003317,-0.45003948,-0.36688933,0.19093117,-0.2380591,-0.30121666,-0.1856032,-0.25996923,0.02531009,-0.03166107,-0.06822026,-0.04386743,0.17212439,0.17249209,0.24506058,0.39651725,0.38534805,0.32276082,0.12743779,0.09624093,0.1420479,0.05242806,0.0849155,0.12985644,-0.05087818,-0.10700348,0.42650744,-0.05192236,0.04585684,-0.22599302,-0.23077451,0.01434619,-0.04613864,-0.09655926,-0.00739374,0.02327291,-0.08988781,-0.08230075,0.16025819,0.28335798,0.49602801,0.47667104,0.34470803,0.35282588,0.34477904,0.25158378,0.23173213,0.17318794,0.19287899,0.13227163,0.1806301,0.05643542,-0.13725452,-0.30809301,0.09031814,-0.46485007,-0.23553698,0.08297136,-0.35889456,0.10902763,0.1609519,0.11632925,-0.02650459,0.14527595,0.09142213,0.02787808,0.17757232,0.39257365,0.49317631,0.33531791,0.29956612,0.41154534,0.35058317,0.1878259,0.31432185,0.37310061,0.38513976,0.31560835,0.1422091,-0.08964572,-0.15699753,-0.27923721,-0.39382794,-0.44566366,-0.21674159,0.24279866,-0.42933381,0.30672136,0.34193543,0.10611393,-0.03305405,0.01398541,0.06655891,0.0427888,0.07003063,0.31410614,0.47511807,0.25573748,0.275677,0.26523283,0.29485765,0.4155511,0.27873984,0.23930477,0.12447251,0.2202352,-0.03236853,-0.23239742,-0.00733389,-0.38138354,-0.72903252,-0.43367717,-0.26241213,0.2746053,0.0665404,0.32916659,0.47520325,0.05430722,-0.12672177,-0.06639354,-0.06189508,-0.08199209,0.01649253,0.25207284,0.21717107,0.02067703,0.11265878,0.19716249,0.18500385,0.42578539,0.2737073,0.2061584,0.02150348,-0.01434466,0.17127162,0.17546105,-0.10490142,-0.44025898,-0.15758739,-0.46001792,-0.17480142,0.34578979,0.189815,0.20404753,0.2770806,-0.00014848,-0.15877248,-0.1726411,0.01516521,-0.0523792,0.01969485,0.09950816,0.06100861,-0.035859,0.01710488,0.1158881,0.18342414,0.32771301,0.24970564,0.00748682,0.00965735,-0.15405005,0.09024042,0.09454847,-0.06067406,-0.35685992,-0.41610199,-0.34291932,0.01704834,0.28363585,0.08156868,0.12198451,0.10727615,-0.03820234,-0.15071802,-0.0813584,-0.09868789,-0.0685248,-0.13656689,-0.02877194,-0.06104876,-0.08904351,-0.10574888,0.09433009,0.30017683,0.27887264,-0.0203761,-0.11573688,-0.20789079,-0.10229858,-0.08414967,0.03657977,-0.21853203,-0.74859583,-0.41884831,-0.25529307,-0.12132858,0.14361939,0.26281998,0.2434333,-0.17850226,0.00515557,0.0219734,-0.06579099,0.0377098,-0.15132019,-0.16099255,-0.04302843,-0.12767193,-0.04154546,0.01301506,0.1292927,0.23539785,0.02631859,-0.17045864,-0.11957553,-0.1459824,-0.05832986,-0.09723154,-0.26993358,-0.52199662,-0.59723866,-0.49234375,-0.40037253,-0.08781555,-0.35435149,-0.13529871,0.37374079,-0.00939137,0.12320167,0.05945968,-0.05090096,0.11535367,-0.15745707,-0.18408978,-0.13350457,-0.00106528,0.07736954,0.10913873,0.0388619,-0.04832463,-0.0050799,-0.07117135,-0.10804156,-0.14666662,-0.14409062,-0.161814,-0.25692844,-0.23179674,-0.52474695,-0.81441915,-0.35014695,-0.01614006,0.08404464,-0.19661692,0.09946656,0.04301575,0.01369216,0.05305576,-0.05637071,0.00181321,-0.03020309,-0.07132599,-0.07165411,0.00340281,0.17240603,0.10946785,-0.06573616,-0.01950141,0.07340356,-0.06577104,-0.16711408,-0.12450709,-0.07909635,-0.14455079,-0.3615301,-0.41474271,-0.21784259,-0.74413455,-0.22116221,-0.24769364,-0.02555512,-0.07992724,-0.09256267,-0.02371229,-0.17550226,-0.02652376,-0.12092163,-0.10574378,-0.11595263,-0.10731091,0.06587558,0.09956183,0.16567498,-0.02107144,-0.04632911,0.06170124,-0.12442926,-0.18351896,-0.1438065,-0.17420751,-0.15592362,-0.1743567,-0.34464473,-0.58084482,-0.30418065,-0.38918334,0.01070037,-0.28379238,0.06657053,-0.00350884,0.00177226,-0.18053147,-0.39358801,-0.20626894,-0.12616614,-0.25511831,-0.13774905,0.04378656,0.22856534,0.17846681,0.21604571,0.21321921,0.1000488,0.04416129,-0.09507111,-0.30423057,-0.1777402,-0.1421321,-0.12372686,0.09587107,0.05352717,-0.19709288,-0.06165444,0.33838046,0.0173826,-0.01874085,-0.01967845,0.40012065,0.42964685,-0.29151934,-0.20480035,-0.17967823,0.07268063,0.08308393,0.00241202,0.26913828,0.22677054,0.2179393,0.38113347,0.27924562,0.16401938,-0.00302135,-0.10513138,-0.05780275,-0.26513475,-0.02766885,0.05570964,0.15975629,0.4093262,0.18867697,0.11391797,0.02199075,-0.02714301,0.01581367,-0.01340991,-0.12067974,0.5611034,0.38864663,0.11912184,0.15946446,0.32554242,0.27939168,0.10792326,0.35933265,0.39776951,0.29885304,0.3570061,0.28233886,0.13908817,0.27054945,-0.12084125,-0.18276875,-0.18388392,0.19862168,0.13225479,0.28131348,0.63132215,-0.30793932,-0.49718317,-0.37612641,-0.01491931,0.02583199,-0.02332914,0.31674114,-0.22332367,-0.20524164,0.20181027,0.33478504,0.53035277,0.36459458,0.43818375,0.58922464,0.49473172,0.33764997,0.42205441,0.31029165,0.28217176,0.41530886,0.42079464,0.40354529,0.34403265,0.41005763,0.2934818,0.1912269,0.31475577,-0.10685834,0.13904782,0.00721172,-0.00996515,-0.01138058,-0.03136753,-0.00466677,0.09536038,0.34389579,0.41480348,0.35369134,0.26055938,0.21951151,0.23327816,0.28027034,0.23181899,0.25397539,0.33278838,0.51026785,0.30725637,0.41992489,0.55101681,0.34549123,-0.05670702,0.41318601,0.25140113,0.0816397,0.11330277,-0.18187048,-0.17763202,-0.01345082,0.03488018,-0.03322512,0.03077435,-0.01631155,0.02050756,-0.29995719,-0.31792292,-0.06839108,-0.00208689,-0.04977205,0.15861344,-0.15798411,0.06411555,0.11494765,-0.40530547,-0.08230001,0.14944451,0.09828294,0.00547283,0.1795307,0.04587439,0.20224202,-0.08853006,-0.14325911,-0.3060509,0.01785197,0.01426465,0.02048559,0.01459929],[-0.0246275,0.01139567,-0.03239343,-0.02875459,0.02323767,0.02817442,-0.0197677,0.00357837,-0.01847349,-0.01164264,0.01109076,-0.02124079,0.17290972,0.16149597,0.25915775,0.1333407,-0.01028838,-0.03143368,0.02821601,-0.03029676,0.02725942,0.00400518,-0.02330241,0.02208388,-0.0243174,-0.02151717,0.00788046,-0.02059498,0.00588883,0.00592605,-0.00695393,0.00781186,0.16697057,0.17429073,0.29167417,0.30056515,0.23446384,0.29530945,0.29696444,0.02126248,0.07398956,0.02687117,-0.25851145,0.19582221,0.40166873,0.47298896,0.40257666,0.40380958,0.35505646,0.15540811,0.22881798,0.25446394,0.01123644,0.01577154,0.01161581,-0.01972227,0.01920223,-0.00960779,0.21519057,0.30305928,0.33659956,0.26342136,0.39802799,0.48531875,0.49450919,0.72933036,0.70913404,0.84183329,0.63918489,0.39539602,0.40054789,0.58051783,0.22365175,0.04870122,-0.00873131,0.08684983,0.31705692,0.47686273,0.40040046,0.50669569,0.42070609,0.18989033,-0.01694602,0.01228256,-0.00488245,-0.03388957,0.19562198,0.25815931,-0.09501689,0.06475651,0.18509127,0.06962802,0.16840848,0.50707954,0.15605168,0.21025419,0.28780159,0.5085755,0.25990903,0.10547904,0.16196145,0.00454719,-0.01514489,0.07947613,-0.06462701,0.00013498,0.02567183,0.01809318,-0.0204688,-0.23510146,0.08833682,-0.02326129,-0.02985314,-0.04986541,0.1729023,-0.20355444,0.1543919,0.38218442,0.20047615,-0.07848382,0.28487846,0.27325252,0.1801153,0.00894208,0.07732368,0.13031366,0.0335824,-0.05169692,0.09318495,0.04587367,-0.11090761,0.03300009,0.06652465,-0.11885167,-0.13642882,-0.22935084,-0.51912028,-0.39152125,-0.29546058,0.36717167,0.02318759,0.03565492,0.53921443,0.01517621,0.29315352,-0.02324978,0.17783964,0.05575575,0.03693718,0.04950878,0.19147944,-0.13222104,-0.0963387,-0.14302719,-0.01012193,-0.01892275,0.07712451,0.08481234,0.20328365,0.07863714,0.05602606,0.04329352,0.04496831,0.05950282,-0.02955328,-0.2888059,0.05732697,0.28188983,0.01304936,0.16341454,-0.183933,0.23364924,0.14519939,0.04942433,0.06662319,0.05231937,-0.04038059,-0.14893264,-0.13038217,-0.17641972,-0.17375204,-0.13918598,-0.19084308,-0.12066449,-0.07238736,-0.0824548,-0.0085794,-0.03710312,-0.12604463,0.09392246,0.1130032,-0.03459556,-0.20522271,-0.1477275,0.00547389,0.14823486,-0.01013614,0.02462341,-0.06681509,0.03584753,0.19961016,0.12211043,-0.00440997,0.07485319,-0.14234647,-0.18318982,-0.19586474,-0.06860214,-0.1824556,-0.16457057,-0.11192033,-0.13550508,-0.09526475,-0.03939766,0.01062735,0.07818411,-0.04784502,0.05932977,0.06153942,-0.08762317,-0.16624966,-0.28199813,0.16082746,0.16179062,0.42372307,0.08605265,0.21089751,0.12031071,0.22724369,0.09138051,-0.0543714,-0.04389702,-0.16570649,-0.13440892,-0.06585772,-0.14735894,-0.06993861,-0.04799274,-0.06666984,0.0238614,-0.02053794,0.1899929,0.02732542,0.03907479,0.12649827,0.02039634,0.0364306,-0.19831456,-0.69033265,-0.85369372,-0.21918526,-0.33623758,-0.15416019,-0.26405382,0.13176557,0.10515658,0.02340951,0.01642301,-0.1006464,-0.09186954,-0.0873565,-0.08173798,-0.1667466,-0.16889611,-0.11391304,-0.09468583,-0.15216011,0.02488788,0.14966708,0.06973787,0.09131603,0.09305091,0.12358478,0.05709714,-0.06301385,-0.11499882,-0.34866315,-0.79422593,-0.42614138,-0.31908426,-0.13716379,0.00138298,0.1271753,0.05823388,-0.06910374,0.0794302,-0.05213937,-0.13987654,-0.1842149,-0.21787672,-0.22945969,-0.10647155,-0.13908607,-0.1738385,-0.10196814,0.09227039,0.08361697,0.22380722,0.08029325,0.12785979,-0.03498038,0.00642242,-0.15180667,-0.44740829,-0.5275653,-0.60744178,-0.27991983,-0.15368862,-0.16747043,0.23531035,-0.29766724,-0.03023788,-0.08404672,0.07176656,-0.1328852,-0.17582029,-0.24340564,-0.15584533,-0.23141807,-0.12125241,-0.03643474,0.00436477,0.03387002,0.02929182,0.02258196,-0.14745735,-0.11176115,0.07859498,-0.03904699,0.00491297,-0.12480632,-0.39377096,-0.41122058,-0.62675661,-0.76515108,-0.20975208,-0.01938078,-0.32765612,-0.24434482,-0.21371998,-0.27878472,-0.1064329,-0.10463053,-0.05162544,-0.06877167,-0.01475219,0.01023772,0.14252488,0.29365358,0.23197949,-0.00798592,-0.15000185,-0.0455083,-0.08296677,-0.10898186,-0.08629429,0.02209766,0.20791265,0.10097641,-0.01000477,0.36861756,-0.38622642,-0.64846891,-0.29702523,0.18722023,-0.31515408,-0.20779851,-0.15665896,-0.28141999,0.06926245,0.20171869,-0.03397519,0.09569196,0.14157465,0.17063247,0.18113884,0.15659888,0.11394969,-0.07400841,0.01110311,-0.0574849,0.03056355,0.00533901,0.1059377,-0.00647648,0.16454962,0.1644263,0.31820285,0.25809276,-0.12120776,-0.05555601,0.24128535,-0.15420724,-0.33407933,-0.34833118,0.04481072,-0.23139785,0.29492703,0.15083811,0.14427871,0.11379104,0.29167813,0.12425655,0.21866137,0.142011,0.08751259,0.08420778,0.05236292,0.07391668,0.00402261,-0.01415718,0.10596489,0.00033085,-0.00664888,0.0640891,-0.10983634,-0.03379093,0.15130405,0.35171527,0.36788625,-0.14513616,-0.24011439,0.35312903,0.28885353,-0.04290007,0.13736792,0.04191359,0.07655976,0.10189839,0.24932516,0.12101246,0.19201195,0.19568706,0.20066676,0.32744488,0.1549896,0.19244882,0.02352921,-0.07144294,0.03060765,-0.10121383,-0.06656545,-0.1484773,-0.14760102,0.02483434,0.41411915,0.08939978,0.31733268,-0.04525052,-0.24940066,-0.02383107,0.22396143,-0.05125453,0.06400539,-0.05654681,0.00513161,-0.10243649,0.13042356,0.06396937,0.22594851,0.13086049,0.11217441,0.28263813,0.26410437,0.23209272,0.11645591,0.12602463,0.02216718,-0.03108304,0.03947195,-0.08000746,0.07289951,0.05012184,0.59383065,0.2473599,0.16170722,0.03261065,-0.14926057,0.23621912,0.06352486,0.10345233,0.06477665,-0.0484976,-0.06041469,-0.00228883,-0.09047048,-0.03098179,0.08180282,0.02590982,-0.02199802,0.16397864,0.1465999,0.05638542,0.01702409,0.09826208,-0.01834103,-0.04805729,-0.06490272,0.08484325,0.02875013,-0.09585106,0.64049405,0.15968795,0.54267091,-0.35181677,-0.06509615,-0.06793133,0.12815808,0.19375642,-0.01588628,-0.0753656,0.04546478,0.02976577,-0.04834181,-0.16983955,-0.15042508,0.04414124,-0.05335778,0.02319195,0.04102569,0.12337734,0.15291214,0.09364023,-0.09414334,-0.05778579,-0.10698503,-0.04231492,0.12921467,0.1236465,0.54878259,0.20117727,0.49113882,0.01410794,-0.39332667,-0.43388963,-0.01233921,0.05808941,-0.04554395,-0.0102745,0.15594912,0.01137472,0.13583025,0.10303418,0.11324618,0.044239,0.06720079,0.15040037,0.17753218,0.22236888,0.20674515,0.08466591,-0.09203351,0.03076328,0.06896659,0.10849997,0.04046565,-0.03333133,0.12148592,0.79768062,0.4653717,0.02795744,-0.10053348,-0.13513941,0.14890525,0.00652122,-0.22152063,-0.06375484,0.2208797,0.04833127,0.1352376,0.12858148,0.10723262,0.12478992,-0.05925149,0.03521165,0.08390822,0.0654985,0.0533237,0.18272331,0.02885834,0.09978834,0.16516311,0.05924441,-0.03587267,0.14788581,-0.18983944,0.76805937,0.14200719,0.24412888,0.18415014,0.2532948,0.40647084,0.04715961,-0.04333449,-0.10323063,-0.00458134,0.0635711,0.14873071,0.10641421,0.09646379,0.04349535,0.04353046,0.03978082,0.012883,0.04789757,0.17985591,0.20795366,0.10700562,-0.01818989,0.07557294,0.19800143,0.24510752,0.16140841,0.10252766,0.23018305,0.03200126,0.20893005,0.21964115,0.28060538,0.21894947,0.04473773,0.27632385,0.07476773,0.06496191,0.0853211,0.14563791,0.17672287,0.01154943,-0.02322588,-0.0029042,-0.11962764,0.04236533,-0.03356948,0.07134935,0.07979432,0.18705919,0.10455957,0.33037126,0.06950344,-0.01702958,0.01321845,-0.08596874,-0.21465731,0.09701829,0.01642899,0.02559028,0.31805876,-0.34703234,-0.17698178,0.01114387,0.09881113,0.24840488,0.18067572,0.30607998,0.06205933,0.09718502,0.15316416,0.05105677,-0.01803573,0.01107298,0.0087454,0.00442261,0.14605641,0.24024017,0.18112251,0.33787182,0.2185663,0.02813986,-0.23486207,-0.09381444,0.11104866,-0.02860812,-0.02008717,-0.00280972,0.01221831,-0.53350753,-0.70462185,-0.37619692,-0.21194406,-0.22884694,-0.14440763,0.05870971,-0.23588099,-0.12714134,0.00184344,-0.08754799,0.02616836,-0.16086861,-0.16508052,-0.08436873,-0.0586241,-0.1387998,-0.0687847,0.11473188,-0.07884935,-0.24826054,-0.02513656,0.33995244,0.16393894,-0.0243739,-0.00762469,0.02192575,-0.06613664,-0.22829436,-0.35790959,-0.78064358,-0.35095954,-0.59882998,-0.64376521,-0.46554974,-0.45377722,-0.48083794,-0.35233381,-0.281041,-0.30120289,-0.32410842,-0.45288715,-0.64999455,-0.6512959,-0.64229411,-0.52969259,-0.66340393,-0.54507554,-0.65650171,-0.6169523,-0.24373372,-0.01943211,-0.01427106,0.03294988,-0.02016044,0.00713876,-0.11426718,-0.5808363,-0.73241931,-0.94356143,-1.05113208,-0.68543291,-0.71443868,-0.68250763,-0.8473804,-0.79904908,-0.96550596,-1.1095289,-0.54332012,-0.39641133,-0.69871068,-0.77242452,-0.67093128,-0.84999585,-0.65350533,-0.54170424,-0.23798776,-0.27470827,-0.05208772,0.03215985,-0.0069203,0.01220343,-0.03145549,-0.01879999,0.02020045,-0.02633666,-0.01106695,-0.30813372,-0.39916706,-0.45159367,-0.4856281,-0.67085153,-0.56656122,-0.58984607,-0.6954298,-0.82603663,-0.50592297,-0.2785812,-0.39029747,-0.43980268,-0.30524111,-0.23898174,-0.09086315,-0.11408428,-0.08763147,0.0329093,-0.02000928,0.02606302,0.01144695],[0.02320015,0.0192817,-0.0329505,-0.0265126,-0.01772159,-0.0212921,-0.02515804,0.02860538,-0.03471346,0.00983099,0.0354297,0.00413104,0.21050142,0.14584927,-0.01903632,-0.01230495,-0.01866371,0.02631237,0.03415059,-0.01684752,-0.02516227,0.03215407,0.03053121,-0.02358409,-0.01073678,-0.0241084,0.00105292,0.02827698,-0.01899367,0.00117208,0.02973796,-0.02800428,0.10732173,0.10330759,0.06547763,0.05361157,0.11677773,0.1594896,0.1176024,0.15245372,0.62706423,0.38357747,0.08422416,0.11359398,-0.38985041,-0.10324267,0.48889476,0.52422261,0.42044872,0.33709809,0.14106402,0.05581593,-0.02749728,-0.02297413,-0.03505697,-0.031788,-0.01720248,-0.00016839,0.22887878,0.09229264,0.19990683,0.16193444,0.03751528,0.27352813,0.10595144,-0.16731413,-0.24252571,-0.22081426,0.16401917,0.19586037,-0.19660433,0.00558157,0.26295456,0.2368796,0.31123087,0.58277619,0.3726168,0.32462975,0.56655645,0.18373464,-0.25453946,-0.25405878,0.02935346,-0.02254045,-0.02064848,0.03142454,0.2373675,0.41896954,0.41099688,0.08522896,0.26633856,0.25760797,-0.15999879,-0.1663987,-0.24446738,-0.42688876,-0.26690444,-0.26055133,-0.22470476,-0.19062336,-0.12359282,-0.02189089,0.04848824,-0.01556299,0.16022235,0.29279169,0.41897786,0.56793171,0.19826831,-0.02235197,0.11202368,0.00031043,0.00020729,0.08455503,-0.19854061,0.17627139,-0.13372213,-0.12751436,-0.16991356,-0.09143394,-0.58237177,-0.46695617,-0.24757411,-0.15112822,-0.20914157,-0.16239767,-0.1032042,-0.03801576,-0.11819118,-0.10791054,-0.0143598,-0.06463717,-0.13394096,0.16527802,0.21199922,0.51816851,0.43503812,0.00106653,0.32980248,0.21300843,-0.02703517,0.01344293,0.05528924,0.3586356,-0.21710622,0.0529598,-0.15633288,-0.31559083,-0.53520805,-0.30493632,-0.1805691,-0.06460276,-0.14986092,-0.06254185,-0.08404087,-0.04799502,-0.12654746,0.13366872,-0.00070006,0.08751943,0.07166001,0.10139522,0.06501847,0.02668415,0.30406618,0.16174181,0.30086416,0.3450352,-0.00837848,-0.12881181,0.13332075,0.12162078,-0.0454117,0.0819901,-0.28507638,-0.48714671,-0.4512496,-0.32936472,-0.1651846,-0.0354667,0.00501036,0.00768104,0.14071132,0.10541803,0.00149066,0.17554957,0.12691279,0.17481247,0.17717266,-0.07949328,-0.02519056,0.04021286,0.40502641,0.38187203,0.07919765,0.06649573,0.00381809,-0.41490403,-0.18941453,-0.18800506,-0.39786404,-0.24706958,-0.62450838,-0.52351004,-0.330755,-0.25922951,-0.05145261,0.08352273,0.13239713,0.07572836,0.22920737,0.29751545,0.25290567,0.27474231,0.21777461,0.15421306,0.27533215,0.10915323,0.09367484,0.10041129,0.18398483,0.46579045,0.08320715,0.09434599,0.18758407,-0.6002441,-0.12636787,-0.09047891,-0.21014847,-0.07338913,-0.243955,-0.36058116,-0.27074486,-0.16651811,-0.06932782,0.07661831,0.17579669,0.25550646,0.26157925,0.20192492,0.13726802,0.14424489,0.14012779,0.01690043,0.10513088,0.09722493,-0.04175336,0.04863118,0.63174498,0.63666677,0.18808866,0.31590986,-0.20360968,-0.11463669,-0.18736814,-0.44353342,-0.19658189,-0.21864724,-0.15526435,-0.33368143,-0.18893076,-0.13789396,-0.07214633,0.11094555,0.07442548,0.16520816,0.16777505,0.09380892,-0.07440313,-0.05243016,-0.13457291,-0.22200029,-0.18495739,-0.06579061,-0.15712129,-0.02995819,0.81019294,0.6422857,0.12557968,-0.19630727,-0.25231227,0.10986148,-0.10910039,-0.32924452,-0.17631444,-0.24536543,-0.38186803,-0.35389447,-0.16447437,-0.23838425,-0.11325973,0.03292115,0.11131538,0.19738269,0.20013002,0.19993791,0.1220463,-0.12298178,-0.24858223,-0.42378765,-0.36087018,-0.2590293,-0.14048395,0.21656752,0.75993228,0.53448802,0.36197105,-0.17966612,-0.28496635,-0.24806917,-0.12054634,-0.38212669,-0.26684749,-0.13792762,-0.22468214,-0.17662881,-0.25253561,-0.30643252,-0.18725875,-0.07494992,0.05727516,0.20049085,0.26761004,0.19876975,0.25889707,0.08701505,-0.04845171,-0.30808452,-0.29804489,-0.28645045,-0.31247449,0.14609329,0.51910663,0.35262504,0.69354713,-0.16709292,-0.04974392,-0.17452976,-0.06650349,-0.40545508,-0.27990147,-0.14783542,-0.0682625,-0.14431483,-0.18504962,-0.12045661,-0.01055767,0.03843138,0.09401732,0.31321648,0.4005169,0.4235597,0.20569193,0.10288458,0.04576052,-0.14528149,-0.16033852,-0.37841344,-0.4838686,-0.32200459,-0.37600422,-0.24277033,0.05849025,-0.34686404,0.28477031,0.07746772,-0.49979809,-0.10352395,-0.03186494,-0.26775303,-0.3473514,-0.12502927,-0.07604282,0.02401249,-0.02441444,-0.00258552,0.29464304,0.38810492,0.39425471,0.45637113,0.1451923,-0.04499149,-0.05785033,0.07358892,0.06212803,-0.23356056,-0.38954723,-0.47430974,-0.55408961,-0.52372921,-0.42674026,-0.09280226,0.25625566,0.20164461,-0.23011684,0.18226151,-0.02197361,-0.22947244,-0.35583267,-0.27334416,-0.08423693,0.06271681,0.08973417,0.06198386,0.20941876,0.24735822,0.24736927,0.20048687,0.15031715,-0.04432225,-0.08682273,-0.02943959,0.1576867,-0.01749583,-0.26233262,-0.43792748,-0.40209895,-0.4618926,-0.54412431,-0.20778255,0.25012338,0.24763735,0.04956893,0.04546143,-0.02137513,-0.10929756,-0.14769533,-0.14888257,-0.04634038,-0.13347234,-0.030407,0.0446938,0.18092783,0.06420902,0.14301519,0.09677602,0.15557756,0.00782612,0.12101809,0.01981909,0.08336885,-0.07483478,-0.1757953,-0.31124336,-0.35063478,-0.37911972,-0.41877678,-0.38560221,-0.22908369,0.19090673,-0.15258273,-0.04654088,0.15896149,0.24489848,-0.00027001,-0.16123681,-0.07232434,-0.37491831,-0.1640361,-0.02941433,-0.06589557,-0.03255285,0.09467517,0.03669061,-0.00304777,-0.02928983,0.05773605,-0.02922269,-0.00431156,-0.27880612,-0.17846249,-0.36879796,-0.37556925,-0.61096895,-0.61915338,-0.25931427,0.00743349,0.33352315,-0.19765371,0.118099,0.2449362,0.1764565,0.12564735,-0.0113766,-0.16796304,-0.22810398,-0.15294334,-0.17525852,-0.28744221,-0.07541887,0.12339608,0.12867962,0.029274,0.0964407,0.06149946,-0.02320372,-0.07023066,-0.2074886,-0.45592821,-0.42894161,-0.30886641,-0.63827324,-0.50354242,-0.41554055,0.32156491,0.19321953,0.01757082,0.01101272,-0.01901709,-0.04234856,0.09110086,-0.01861669,-0.04242453,-0.08130437,-0.2843895,-0.2017612,-0.20017532,-0.01146137,0.15648854,0.10019549,0.0151803,0.10674646,0.00816165,-0.16966574,-0.20568559,-0.43545592,-0.56112331,-0.54347461,-0.42211249,-0.2832332,0.01161559,-0.11315022,0.24111339,-0.34261075,0.11038788,-0.14152318,-0.11574931,-0.05919796,0.04801793,-0.03419102,0.03169753,-0.05672596,-0.14370452,-0.19360968,-0.10784603,-0.04897169,0.03664612,0.05173004,0.0382847,0.06412858,0.16190602,-0.0616966,-0.25924957,-0.34128496,-0.41003501,-0.36342758,-0.21930826,-0.0486569,-0.08576288,0.01420665,0.03159208,0.22320355,-0.12867793,-0.21168132,-0.18563329,0.07128689,-0.07441087,-0.17598623,0.10831217,0.00626293,-0.04435351,-0.04969921,-0.02736036,-0.01691271,-0.02728512,-0.00665676,0.06061121,0.19721161,0.01455928,-0.19888929,-0.4251515,-0.38626349,-0.31447315,-0.38412815,-0.30765489,-0.21299565,0.04648143,0.32325831,0.2821486,-0.15643983,-0.35125822,-0.06315036,0.09308264,0.15507773,0.10751441,0.09360449,0.00921124,0.07161513,0.11859883,0.05760135,0.00102402,-0.02281172,-0.00016007,0.01755641,0.02900707,0.05347175,-0.15081681,-0.32822928,-0.31439054,-0.42798331,-0.49143592,-0.46733695,-0.25644961,-0.2222032,-0.09886318,-0.0265762,0.28067744,-0.02124621,-0.38314968,-0.14627303,0.09461813,0.02804113,0.0947436,0.00878848,-0.0005692,0.02165494,0.0891214,0.08789415,-0.01910429,0.06622499,0.14479135,0.03998708,-0.00607137,-0.14716901,-0.21760885,-0.39357248,-0.49707392,-0.70659178,-0.54228795,-0.2211522,-0.03093506,-0.15229082,0.04925317,-0.02622987,-0.00721632,0.0176942,-0.28221452,-0.02598165,-0.08506993,0.04310242,-0.02084306,-0.06645676,0.09868528,-0.03164232,0.10247456,0.04201125,-0.00282157,0.03066939,0.07931701,-0.00427028,0.00630169,-0.14128098,-0.37363759,-0.50598973,-0.48239249,-0.57628036,-0.32084259,-0.33560836,0.02858493,-0.12125459,-0.24512736,-0.00437783,-0.02431112,0.01509936,-0.08596139,0.01054527,0.04871482,0.13432546,-0.05273616,0.06157757,0.04091068,0.02547942,0.1636564,-0.00709803,0.0003392,0.04210154,0.00949596,0.11345912,0.08364588,-0.21586108,-0.14666943,-0.33975482,-0.21647567,-0.27794617,-0.18097545,-0.10806128,-0.11601862,-0.28484383,-0.2312873,0.0256824,-0.02504482,0.02507166,0.14845538,0.20087966,-0.05208281,0.00532724,-0.0916516,-0.07326514,-0.03765694,0.12536652,-0.02584431,0.02857672,-0.03362413,-0.07245992,0.02793822,0.14556806,0.26222518,0.41385087,0.39031199,0.30676675,0.22075289,0.47587994,0.55229485,0.38436541,0.21547332,0.07846587,0.03483009,-0.01609636,-0.0007895,0.01659121,-0.03288698,0.15410347,0.57941985,0.50611216,-0.00393764,-0.2112052,-0.1252037,0.19019364,0.17563002,0.4077749,0.37877783,0.41101927,0.58237576,0.42928624,0.61679548,0.78425694,0.64924306,0.35687268,0.5983454,0.61447024,0.43324998,0.10331177,0.07621222,-0.16873716,-0.02601526,-0.01543949,0.02809818,-0.03521252,0.01316488,0.00311429,-0.22443777,-0.23882081,-0.15556562,-0.09340058,-0.06573644,0.25912702,0.17865103,0.5462383,0.37171841,-0.07714162,0.44356665,0.3890281,0.21088113,0.33305722,0.3762694,0.13617131,-0.04500233,-0.12100881,-0.1479972,-0.13030855,-0.01962669,-0.00911959,-0.00667856,-0.022476],[0.01843315,-0.0301124,-0.02011523,-0.00188918,-0.012133,0.03508487,-0.03362097,0.02340559,-0.00844419,0.03415479,-0.02621621,0.02128837,0.03255843,0.04961564,0.08753986,0.0805946,0.02106025,-0.00728021,0.00759708,0.01429599,-0.02249018,0.00875763,-0.01987982,-0.02192354,0.02612037,0.0035199,0.03173428,0.03566643,-0.02328975,0.01232126,-0.01826605,-0.02428077,-0.00627519,0.05992587,0.03906016,0.06766246,0.08914232,-0.00205752,-0.05108676,0.10499196,0.0295434,-0.05724046,-0.04121571,-0.05048397,0.09822004,0.1282635,0.0118879,-0.00020389,0.00743712,0.05185717,0.06385594,0.05167069,-0.00138442,-0.00654975,-0.02371629,0.02442465,-0.01127449,-0.03281601,0.01599426,0.03311311,-0.03470076,-0.05198724,0.00519764,0.03869826,0.13529156,0.58009565,0.62068212,0.39555353,-0.01107615,-0.39112583,-0.40297303,-0.41051185,-0.38350007,-0.18113501,-0.09823067,-0.0491105,-0.04054125,-0.04766871,-0.02088776,0.11648154,0.1577832,0.06090951,0.0140668,-0.00921759,-0.00716671,0.02443877,-0.03531537,0.24787416,0.31014714,-0.11184692,0.0959949,0.32283151,0.63756227,0.39668185,0.42722112,0.29559118,0.43478653,0.13449098,0.18339609,0.00497092,-0.33434221,-0.11777996,-0.05534038,0.08055583,0.18384355,0.0143072,-0.11421404,-0.09262019,0.13097347,0.36193821,0.3390165,-0.01254297,0.02045599,0.05248508,-0.07097054,0.21848112,-0.46889782,-0.136095,0.05631703,0.15745029,0.04082356,0.16172306,0.08078753,0.37978643,0.31335148,0.20622395,0.10986561,0.19343716,0.00639101,0.16454679,0.28250372,0.13559195,0.11314671,0.11165238,0.10261872,0.08828076,0.03575784,0.09867993,0.44564441,-0.01918241,-0.01200742,0.00419837,-0.22208692,0.16193433,-0.53424293,-0.27871364,-0.25953844,-0.02926902,0.20305791,0.15501703,0.17460668,0.16873199,0.22765218,0.29835302,0.22812052,0.10555363,0.26029101,0.31254795,0.21060359,0.146433,0.27353701,0.173158,0.17824261,0.08218511,0.15595177,0.70444983,0.33951947,0.1144987,-0.00140906,0.20316595,0.34504271,0.17098241,-0.03713362,0.0554176,-0.09309302,0.01247745,0.17939836,0.19289251,0.25302857,0.14166015,0.2116088,0.28777626,0.3738001,0.33556125,0.22296566,0.29196867,0.20158009,0.11300594,0.11246821,0.17812203,0.10927126,0.01955166,0.41278738,0.36688232,0.24932428,0.40070069,-0.01593632,0.35052139,0.29487571,0.24718086,-0.07609255,-0.00059617,-0.05896936,0.00624169,0.16214074,0.14929324,0.15831873,0.22856227,0.17086887,0.21830016,0.3543317,0.3171176,0.36136472,0.20940851,0.35155907,0.19160533,0.19610558,0.14358428,0.10602642,-0.06423956,-0.09187786,0.07721674,0.38441077,0.16956303,0.0890656,-0.03246649,0.352826,-0.09205456,-0.17569469,-0.32799789,-0.30297121,-0.13342215,0.08092561,0.11088554,0.12200555,0.20702469,0.20981501,0.23374699,0.31410068,0.32235074,0.3136591,0.22652695,0.18040256,0.12614776,0.11460095,0.03946462,-0.10861178,-0.07887195,-0.16363956,-0.11336684,0.23136064,0.03933779,0.02141134,-0.01093053,0.40587592,-0.18700202,-0.00046065,-0.18471244,-0.21630532,-0.20047027,-0.0032624,0.07758718,0.02481084,0.09573649,0.17370044,0.10615012,0.07108442,0.00496994,0.01188136,0.04168169,0.04568335,0.01342781,-0.07321946,-0.13976471,-0.21563512,-0.20519139,-0.09742715,-0.0487003,-0.22824638,0.25569811,0.04677903,-0.04004675,0.37646714,-0.06143934,0.2042916,0.04091201,-0.08124617,-0.07994337,0.02436535,0.06178468,-0.02275909,-0.02288012,-0.0535537,-0.0476249,-0.35658535,-0.49889386,-0.26607999,-0.18859409,-0.22408375,-0.348441,-0.14116207,-0.17762561,-0.38855353,-0.3800697,-0.07930288,0.13877265,0.49475375,0.18447793,-0.11236415,0.06197903,0.03399099,-0.14071639,0.11836544,-0.1071593,0.05320491,-0.09825849,-0.04622385,-0.03655255,-0.01477999,0.00649455,-0.11163402,-0.25988439,-0.64744085,-0.59400648,-0.36797047,-0.16246997,-0.17936012,-0.27008355,-0.35520574,-0.28036124,-0.3040632,-0.23298249,-0.11746427,0.0166127,0.45351171,-0.17695743,-0.18410321,0.24197285,0.03931862,-0.05484842,-0.10849769,-0.15505892,-0.04055877,-0.03385864,0.09603062,0.00336927,0.05736266,-0.05347091,-0.2888447,-0.42932752,-0.42678946,-0.24881899,-0.10394223,0.03443775,0.11469699,-0.1232454,-0.07331695,-0.1843819,-0.44902125,-0.353625,-0.59351021,-0.65133411,0.04536051,-0.24639623,-0.02961828,0.05962161,0.17350498,0.22155209,-0.36413202,-0.18843356,-0.10783108,0.072645,-0.04835024,0.03608187,0.00380168,-0.20252503,-0.31814304,-0.22355339,-0.06850464,-0.1429491,-0.03808136,0.00873387,0.05235599,-0.04096149,-0.05551437,-0.04192756,-0.27624741,-0.3123115,-0.58663374,-0.52939385,0.27552441,0.18626899,0.23218064,0.05899917,0.2424105,-0.08043244,-0.38228357,-0.34002271,-0.15423232,0.04438661,-0.01251341,-0.12746866,-0.1887618,-0.33651465,-0.33512986,-0.16206539,-0.00887837,-0.00362127,-0.15165335,-0.19594921,-0.15755519,-0.22066365,-0.13258061,-0.09974235,-0.12550287,-0.11388229,-0.37621382,-0.40964895,0.51951683,0.19583981,0.23169112,-0.07395389,-0.14622335,-0.28342646,-0.2469198,-0.18338411,-0.1668798,-0.19946574,-0.25882778,-0.21148665,-0.28993902,-0.26749203,-0.1513242,-0.07617489,-0.12620822,-0.10487078,-0.16262205,-0.16290264,-0.14902753,-0.25186256,-0.11522013,0.09830169,-0.13716565,-0.04777353,0.02388476,-0.11536265,0.56586266,0.40158716,-0.02003649,0.01912332,0.04824075,-0.11882608,-0.44840443,-0.23976596,-0.50423419,-0.39082152,-0.254466,-0.24555492,-0.06751531,-0.07114405,0.01810627,0.08527176,-0.07518474,-0.1432372,-0.26247957,-0.16294152,-0.09527662,0.04998343,-0.12958029,0.09253874,0.00982615,-0.10364673,0.02637356,0.27184501,0.37102136,0.39366773,-0.00661049,0.04194027,-0.25088382,0.03101479,-0.37323135,-0.39569944,-0.54064894,-0.40571687,-0.17710952,-0.12107638,-0.02681052,0.05018088,0.03326911,-0.00427212,-0.16839427,-0.26700363,-0.15590794,0.05414396,0.01816888,0.00556309,-0.08920266,-0.00888997,-0.01116602,-0.19866189,-0.11080984,0.51903737,0.00932924,0.23096642,-0.06437413,-0.03033635,-0.34321994,-0.01530301,0.03603731,-0.25295609,-0.30246863,-0.09180509,-0.06541637,-0.09927467,0.01532935,-0.12774335,-0.12071072,-0.18949631,-0.275958,-0.14884633,0.02949628,0.04270007,-0.00232874,0.05579318,-0.04249972,0.06384593,0.08253285,-0.12876138,0.01909937,0.16722135,0.06506417,0.07636209,-0.17285077,0.07376245,0.33134431,0.19612014,0.19469741,-0.05345612,0.16699958,0.0892702,0.1342645,-0.08057996,-0.14014068,-0.18786177,-0.02257114,-0.0820233,-0.11615941,-0.01626609,-0.02774696,0.03448019,0.05948761,-0.05091995,0.13941425,0.0550411,0.00337749,-0.06305277,0.23515689,0.09460592,0.13771197,-0.0562982,0.02698102,0.01191063,0.28188109,0.3985934,0.20659433,0.25957254,0.21038148,0.1555452,0.31689864,0.18777646,-0.04334795,0.10256066,0.096828,0.20805873,0.14397348,0.26789832,0.18056343,0.09962753,0.03673448,0.05137577,0.11505951,0.03195733,0.20942032,0.2393496,0.03081214,0.00301469,-0.0260687,0.09824596,-0.27304485,0.15393791,0.42200717,0.06728211,-0.0600149,-0.1535643,-0.14312644,0.07314201,0.21214466,0.17935339,0.16626805,0.27585438,0.27947891,0.36083597,0.37143239,0.30698046,0.20045169,0.13183263,0.07447295,0.12446415,0.16370004,0.18155324,0.42339921,0.49023807,0.18046612,-0.11657038,0.17158192,0.01265667,-0.23441213,-0.1488166,0.3727766,0.17589702,-0.08800338,-0.23375566,-0.08851253,0.05213083,0.13907845,0.15263021,0.14128242,0.31081489,0.25742993,0.2578465,0.29804927,0.2921848,0.23087998,0.21852788,0.16096838,0.1702978,0.19024888,0.2885184,0.53025073,0.599549,0.06037231,-0.057307,0.21483015,0.03249051,-0.02860186,0.0097484,0.09411447,0.51479936,0.42981991,0.23101036,0.24587123,0.20401886,0.09249215,0.27320805,0.2672182,0.33452499,0.140315,0.14105022,0.22643977,0.20727573,0.16685133,0.2178414,0.1489308,0.13864419,0.27042174,0.19263887,0.43820843,0.70714217,0.44579422,0.20198435,-0.18177575,-0.01005849,-0.02641156,-0.00817334,-0.22323501,0.46257624,0.37390772,0.05432777,0.15987447,0.30771905,0.25979081,0.23314108,0.07807825,0.06279331,0.20234869,0.21179794,0.30290908,0.24965921,0.18798587,0.34211555,0.42955956,0.26250535,0.21409512,0.21023069,0.208281,-0.06183647,0.37067688,-0.06709273,-0.34281191,0.01610456,-0.00888141,0.00204742,-0.2661171,0.37147167,0.46274397,0.3414197,0.28967851,0.33085117,0.34238032,0.43928167,0.32102191,0.25448111,0.3123028,0.1833844,0.01558869,0.23049682,0.29134724,0.36713839,0.51920086,0.67856842,0.22345857,0.40582323,0.53315836,0.23322648,0.28693902,-0.16520096,-0.01097286,0.01933306,-0.02608224,0.00382637,0.030926,-0.11271678,0.19863231,0.022269,0.15222533,0.11987733,0.28277552,0.20019747,0.26391003,0.09944916,0.00140249,0.10893649,0.18096308,0.4466221,0.32099643,-0.02782411,0.10358237,0.56740254,0.44118845,0.418542,0.39720935,0.39266801,-0.00038923,0.20223764,0.03374537,-0.02601765,-0.03267513,0.00812325,0.00275135,0.02005001,0.04220723,0.04406483,0.1711213,0.37666461,0.35256842,0.13621816,0.290876,0.38247809,0.45614609,0.63855326,0.34151116,0.13423553,0.16209471,0.32403979,-0.18989295,-0.2462084,-0.0539889,-0.11248745,-0.0442494,0.04416788,0.02118347,-0.00402222,0.00232553,0.00012343],[0.02768352,0.01052298,0.03132604,-0.02938625,-0.01782576,-0.01360291,-0.02309526,0.01042151,-0.005076,0.00239417,-0.01358082,0.03502872,-0.07725402,-0.10139187,0.00237173,0.00461968,0.03304558,-0.01926571,-0.00743796,-0.00924467,0.03245251,0.005218,0.01424736,-0.01014375,-0.02251345,-0.03241443,-0.01631164,-0.0248689,-0.02501228,0.02478902,-0.03249383,-0.02984193,-0.01542324,-0.11204019,-0.29802889,-0.28798112,-0.23076218,-0.19690627,-0.14165705,-0.23626931,-0.19531523,-0.26637834,-0.15498698,-0.10884815,-0.02836714,-0.08608022,-0.04729301,-0.06303857,-0.05735929,0.02951003,-0.04932877,-0.02237759,-0.02654982,-0.01015965,0.03200632,-0.01433742,-0.00800665,0.02700841,-0.0275189,0.01068605,-0.02854132,-0.06148331,-0.25364733,-0.46182552,-0.52588934,-0.26368815,-0.15610906,-0.10485596,-0.53876352,-0.55673856,-0.40476865,-0.22929768,-0.17298672,0.125487,0.26515231,0.3404552,0.35358974,-0.0755492,-0.00028571,-0.05427236,0.03694298,-0.00918666,-0.00167068,-0.03280078,-0.02349583,0.01131656,-0.05719084,-0.10290129,-0.04728417,0.2131691,0.04611109,-0.03220908,0.1062917,0.02642709,0.10689089,0.01378429,-0.10103372,-0.35482392,-0.18982039,-0.28596425,-0.28385112,-0.1506189,-0.21137853,-0.1412563,-0.33950838,-0.06122926,-0.10180072,-0.2351654,-0.12801749,0.07091494,0.01453003,0.00619077,0.03566168,0.06617409,0.10225577,0.25937006,0.06384823,0.15083033,0.1669407,0.03749447,-0.02933686,-0.0911542,0.08386569,0.0654844,-0.15493736,-0.08849081,-0.04341696,0.07260743,-0.05747604,-0.15442356,0.05264886,-0.06863862,-0.28840679,-0.07209776,-0.05259075,-0.41813987,0.07918532,0.15036364,0.31086403,-0.0346916,-0.01791763,0.02937019,0.09191442,-0.01751977,0.14860596,0.25922245,0.14824815,0.0932298,0.19537543,0.08771352,-0.07144679,0.07407164,0.043934,0.06538003,-0.07943169,-0.11101463,-0.06334868,-0.00561068,0.09932043,0.05606577,0.04616602,-0.12947962,-0.00702362,0.10611603,0.11265783,0.13044359,-0.18829609,-0.12712497,-0.00132459,0.1986644,0.30685246,0.04983472,0.11705704,-0.0431578,0.02119885,0.01170427,0.14100772,0.10468054,0.06937613,0.07452747,0.02178145,0.14542091,0.13186762,0.09527016,0.06301823,0.12896648,0.13123266,0.01369674,0.13159359,0.1751795,-0.01264047,0.04388482,0.18999702,0.11964464,0.17121491,0.2654359,0.03069987,0.34796858,0.41633594,0.0484263,0.04970627,-0.12145415,0.01824406,0.00433521,0.0523421,0.01326421,-0.02417147,0.02692365,0.13553107,0.13558184,0.12001202,0.05222132,0.07466006,0.17314637,0.04553642,-0.04339969,0.09257749,0.09082247,-0.17136325,-0.40975299,-0.19615489,0.16562359,0.20637158,0.37570307,-0.01554318,0.10380071,0.20347616,-0.00250047,0.00095852,-0.1276567,0.01025879,0.09599193,-0.03186797,0.08390991,0.07627397,0.03455022,0.08528953,0.09098333,0.03811318,0.06118956,-0.03404244,0.05953078,-0.07619818,-0.17377137,-0.17861876,-0.1132934,-0.18225059,-0.34487823,-0.30097297,0.02196277,0.06164703,0.28945467,0.05104164,0.10901623,0.04373145,0.11826082,0.16858731,-0.10464413,0.12784448,0.07747111,0.07377914,0.16704531,0.03268361,0.00460011,0.07088339,-0.04296755,0.00804354,-0.0062325,-0.15304276,-0.09437039,-0.12501445,-0.17343809,-0.14866149,-0.14997388,0.02186843,-0.13088268,-0.0403062,0.13155626,-0.34357265,0.12768912,0.06700294,-0.01451448,-0.06827455,0.26673058,0.03654385,0.0491404,0.11288369,0.05496106,0.16370186,0.00401115,-0.0363168,-0.03139704,0.02375511,-0.01331411,-0.00771444,-0.08328488,-0.04777575,-0.11348297,-0.1021226,-0.1718159,0.02946567,-0.15021163,-0.00973479,-0.05331239,0.10506891,0.13344912,-0.09350125,-0.00185734,0.22937691,0.1857795,0.38383856,0.2345449,0.13906665,0.11709128,0.09363195,0.04995226,0.0845808,-0.14773041,-0.10656096,0.0293972,0.04284645,0.07625414,0.07770748,0.01630398,0.0947587,0.15394461,-0.02675197,-0.08798632,0.0933454,-0.0649022,0.02552112,0.12590535,-0.04071968,0.13198744,0.1843126,0.06821556,0.22344893,0.07250544,0.26958567,-0.11724394,0.23631757,0.07986462,0.08998897,0.07699552,0.09301762,-0.06809879,0.00144657,0.04562994,-0.05021137,-0.01640575,0.22201324,0.08432283,0.10409785,0.14325881,0.17032793,0.02725863,0.09821502,-0.08051762,0.12169357,0.18628825,-0.32366195,0.20104639,0.16304822,0.30866063,-0.19824509,-0.14440677,0.19716163,-0.04829312,0.14311033,0.03170665,0.03662628,0.07392424,-0.04037578,-0.04239824,0.08447383,0.08991097,0.07502831,0.19407351,0.21395837,0.00444488,0.10669874,0.0364737,-0.03581468,-0.08957992,0.06581677,0.15735093,-0.07985919,0.04040216,0.24738437,0.13205744,-0.00656672,-0.21317175,-0.06047051,0.03013993,0.18262623,0.08311169,-0.00607919,-0.16728286,0.12496979,0.09277091,0.16091353,0.25290036,0.21082214,0.06623176,0.19282764,0.21280727,0.19939174,0.19016172,0.11012359,-0.00769704,-0.04670106,-0.08590712,0.06698314,0.10305049,0.17892802,0.35267755,0.40022463,-0.00661876,0.01537789,-0.40552524,-0.03826117,0.2693308,-0.05355855,-0.3237375,-0.26717684,-0.12156502,0.10523932,-0.07150024,0.03133484,0.24047461,0.33493736,0.35584918,0.28933269,0.26263836,0.20636471,0.18127733,0.09524138,0.10657929,0.03275662,0.02073666,0.16071153,0.1351022,0.13074654,0.29471511,0.2490294,-0.26465681,0.2213798,0.0767228,0.0530805,0.26736361,0.3151423,-0.16701959,-0.49838692,-0.44678247,-0.25188276,-0.14518693,-0.04762769,0.09422449,0.30966204,0.36141029,0.30500671,0.29530382,0.15294944,0.06423972,-0.01392759,0.05595297,0.12567388,0.05750582,0.00099258,0.04217187,0.07318053,0.13855,0.39496642,-0.29812974,-0.02226805,-0.01635608,-0.0040127,0.2662611,0.10992244,-0.02297995,-0.62444907,-0.57140058,-0.5360837,-0.39488521,-0.46972331,-0.38412839,-0.25079966,-0.14717551,0.05147723,0.08949552,-0.02933688,0.1156399,0.00094514,0.01600934,0.01025109,0.00931193,-0.11006697,-0.03441874,0.01011118,0.1304756,0.03854995,-0.1637322,0.03704317,-0.27612084,0.20327346,0.07926983,0.38594571,0.15930396,-0.41349003,-0.48824617,-0.66103035,-0.69430143,-0.80285174,-0.95663077,-0.7956304,-0.9039225,-0.87359738,-0.5269115,-0.17537552,-0.02610003,-0.09006948,-0.03911297,-0.07863229,-0.03521882,0.02955646,0.14318646,0.03037294,-0.04563526,-0.26666284,-0.13113527,0.20246331,-0.22788091,-0.00155361,0.17193161,0.29232433,0.39987513,-0.10683282,-0.25629163,-0.39757901,-0.45741764,-0.56309181,-0.7998237,-0.8082512,-0.77456897,-0.64427423,-0.51427299,-0.30262616,-0.18389137,-0.12590855,-0.05419103,-0.0207107,-0.00635242,0.07006217,-0.01848217,-0.11577938,-0.03125335,-0.07730961,0.21533869,-0.11631221,-0.15180995,-0.00767728,0.00378062,0.15204704,0.54976106,0.22601928,-0.00361885,0.02732333,-0.12709434,-0.11981613,-0.05101459,-0.05458647,-0.13079432,-0.12513404,-0.01933633,-0.03693125,-0.09001341,-0.11099515,-0.06687889,-0.00704844,0.02210676,0.03716657,-0.07470021,-0.09125752,-0.00198776,-0.10501755,0.14841233,-0.12795211,0.09581969,-0.06300936,0.15142334,0.29198676,0.40874752,0.31363639,0.00721162,0.08224041,0.03637207,0.02236394,-0.01639463,0.18885088,0.07702612,0.15472427,0.02177352,-0.09472256,-0.03185058,-0.02155546,-0.19919355,-0.14593026,0.05963242,-0.09071353,-0.15216978,-0.13049924,-0.11618671,-0.29913747,-0.24761291,-0.17526856,-0.03663863,-0.03264857,0.03396626,0.15623523,0.40726176,0.19392905,0.0490393,-0.0466559,0.10865637,0.08478268,0.13129683,0.20237927,0.17949328,0.07132114,-0.06139209,-0.0505356,-0.02609883,-0.03583427,-0.09477771,-0.05404141,-0.00631524,0.02730499,-0.10664302,0.02743083,-0.06696089,-0.24921873,-0.28256005,-0.33237308,-0.01214784,0.01344037,-0.01590551,0.48525015,0.44349784,0.23700055,0.2401436,0.11567614,0.12628268,0.13851142,0.16438405,0.21161675,0.13403791,-0.06732651,0.0062712,0.0569796,-0.03730195,-0.05800233,-0.02725546,-0.07206258,-0.0561247,-0.02291117,-0.26736832,-0.13917394,-0.04700577,0.22425897,-0.19734849,-0.12766214,-0.02000527,0.00200466,0.01522751,-0.15651836,0.45220146,0.68743324,0.32162461,0.22624817,0.04350351,0.04819163,0.03929001,0.1664166,0.00205805,-0.05993869,-0.01310033,-0.04383201,-0.12251029,-0.0880421,0.00710267,-0.21536107,-0.2444399,-0.0654975,-0.00933253,0.00536258,0.27028328,0.23089735,-0.54357082,-0.22245428,-0.02989397,0.01867507,0.03440254,0.06757572,-0.18681712,0.46781397,0.91092294,0.42046586,0.30889329,0.51050901,0.34162083,0.05551245,0.01898998,0.17778319,0.04864854,-0.21849573,-0.19480827,-0.03487694,-0.10609444,-0.10148448,0.13520108,-0.00679691,-0.04058319,0.00124897,0.39173928,0.70927781,0.04504946,0.02906016,-0.01278291,-0.00032547,-0.02618954,0.0168768,0.0788993,0.47407481,0.56697756,0.54407293,0.3778041,0.29845661,0.38747436,0.60986024,0.33233267,0.29372731,0.48330736,0.66605788,0.58465195,0.45882827,0.48821408,0.33676454,0.55338877,0.39478236,0.24405664,0.43430138,0.29192159,0.3466793,0.04837017,0.00468534,0.02188266,-0.02624557,-0.02421233,0.01825095,0.01650766,-0.00434251,0.00626806,0.20463412,0.2671524,0.34269071,0.27871439,0.4583481,0.33745712,0.30391693,0.28088912,0.43422914,0.22065498,0.29248673,0.33944726,0.24885172,-0.20662667,0.03141822,0.34004295,0.32071337,0.07047121,-0.01276279,0.02405614,-0.01840831,0.01142167],[0.01210871,0.0107995,-0.02186429,-0.00325386,-0.03277797,0.01361409,0.03195469,-0.00861934,0.03516702,0.02165296,0.00483272,0.02852303,0.0490376,0.06242966,0.03096018,0.0271175,-0.03492376,0.03272481,0.00377079,-0.03188701,0.00174393,0.01066992,0.00071018,0.02049073,-0.00684647,-0.01509822,0.00107045,0.02747921,0.0117479,0.01378853,-0.02363699,0.01052267,0.03141522,0.01692201,-0.02404809,-0.02473398,0.03149311,-0.0762649,-0.14024721,0.23125087,0.18381765,0.15476526,-0.35820842,0.1765534,0.33930939,0.30831227,-0.16860364,-0.00431362,0.04580376,-0.05996912,-0.02658311,-0.02561475,-0.02330171,0.00468209,0.03434042,-0.002732,-0.01834529,-0.02925686,0.04557944,0.31963804,0.24851906,-0.17490458,-0.34261957,-0.17986742,-0.30268982,-0.25887433,-0.04256124,-0.01145026,-0.04128135,-0.58344424,-0.68366444,-0.76299739,-0.59082514,-0.6433441,-0.16348936,-0.32841876,-0.34742489,-0.20258389,-0.19851914,0.03303984,0.10946647,0.17902884,-0.01983692,0.02386064,-0.00133181,0.01265792,-0.08839507,0.36558768,-0.13012186,-0.3731102,-0.45975789,-0.38414735,-0.11167123,0.04200022,0.00479035,0.07456326,0.15549093,0.10087163,0.07065737,0.14850649,-0.00701998,0.0718219,-0.16397071,-0.29676658,-0.29748797,-0.15451698,-0.21692491,-0.05063464,0.02172866,0.28577468,-0.2433407,-0.02956725,0.0325871,-0.10860935,-0.32086638,-0.04511545,-0.30877411,-0.53075683,-0.38885167,-0.15473305,-0.30939296,-0.01744827,-0.10349745,0.01158876,0.02648176,0.11557464,0.25017598,0.30262393,0.05695908,0.04747769,0.01821827,-0.29644999,-0.19939449,-0.36166435,-0.23614822,-0.26012203,-0.16857153,0.19378681,0.2446405,-0.32418695,-0.01722344,0.03205843,-0.36212096,-0.46924555,-0.43520418,-0.43268675,-0.36334464,-0.1359857,-0.00549987,-0.16507992,-0.18659921,0.05988711,-0.03419652,0.25286895,0.06289706,0.07895315,0.10762611,0.12766501,-0.13820025,-0.16192453,-0.072763,-0.08754873,-0.31323907,-0.50599819,-0.39368281,0.10889793,-0.09590932,-0.34250039,-0.0234204,-0.19536905,0.02675312,0.05628495,-0.20352416,-0.2521069,0.08642101,-0.02124581,-0.01487491,-0.1041415,0.09633236,0.08340046,0.00335653,0.03111199,0.1218803,0.08031858,0.0505017,0.19724363,0.18104304,0.01160313,0.09735667,0.18595129,-0.0941603,-0.32267427,-0.43303692,-0.29382661,-0.35626292,-0.17316297,0.03680724,0.06961174,0.53111583,0.26468432,-0.06861018,-0.1355989,0.19204465,0.13164599,0.17102623,0.12859707,0.19443159,0.23966955,0.15493533,0.08102866,0.05405154,0.10022784,0.11010437,0.16993715,0.25588399,0.04870491,0.10837959,0.14192165,0.0659766,0.01284415,-0.19468883,-0.30513582,-0.40124637,-0.15262049,0.3880375,0.41896865,-0.11206787,0.03902243,-0.11992904,0.05785551,0.21645305,0.2357454,0.43725446,0.28672376,0.22429335,0.17891718,0.26453647,0.1799759,0.31844139,0.36011589,0.53175008,0.28194624,0.242467,0.23806077,0.27952865,0.23936976,0.2230859,0.22014341,0.19213758,-0.1066517,0.02061149,0.4970066,0.23473521,0.42397684,-0.03442964,0.32169214,0.32563606,0.34192264,0.16088331,0.20723203,0.26627007,0.32790959,0.3474029,0.22714274,0.27593467,0.42174497,0.52261543,0.42159316,0.38886732,0.34442621,0.2664085,0.26271299,0.35116744,0.14949757,0.07235681,0.2427763,0.26645672,0.34059814,0.17868426,0.53528666,0.23000385,0.29140744,0.25393206,0.23958193,0.56269783,0.42996281,0.3927229,0.25171095,0.22818533,0.26187235,0.24365765,0.32448885,0.20368719,0.42651185,0.60046911,0.25485909,0.33124849,0.20878227,0.33176449,0.22385553,0.43125251,0.34802201,0.41921362,0.52892381,0.31138286,0.07933399,0.26989579,0.38630527,0.38308039,0.51110643,0.22219421,0.33299246,0.31306756,0.12125929,0.26046866,0.16508153,0.15241854,-0.01900856,0.07346231,0.31879824,0.16550744,0.37037247,0.26697913,0.04959774,-0.07944293,0.00875506,0.10294836,0.2039836,0.333823,0.34031859,0.54822099,0.53882354,0.49681497,0.24457367,0.49890366,0.11487804,0.20705782,0.43127671,0.0373892,-0.04375184,0.04673783,-0.00461117,0.05518879,-0.09402857,-0.05374669,-0.09334429,-0.16386703,-0.12053364,-0.17193545,-0.07560873,0.02658189,-0.11821476,-0.23385638,-0.10054196,-0.05063083,0.18668996,0.26289007,0.17080329,0.25480327,0.35118604,0.16428551,0.00067951,0.1072386,-0.05261369,-0.20110437,0.35614973,0.17771561,-0.19962953,-0.29227373,-0.17904823,-0.17798698,-0.20310125,-0.17864741,-0.17419107,-0.11363729,-0.16836426,-0.26368749,-0.18855815,0.03089648,-0.22784694,-0.25987494,-0.23032391,-0.11379172,0.02888253,-0.05507042,-0.01178298,0.06900507,0.23058583,0.01803818,-0.13848193,-0.09870267,0.1167054,0.09202061,0.08405536,0.50027806,-0.49027902,-0.43426946,-0.25127029,-0.16491874,-0.12561885,-0.22898878,-0.15618789,0.03406133,-0.05236719,-0.16326544,-0.05425277,-0.13280277,-0.19207206,-0.33216956,-0.21425265,0.01837491,-0.07538351,0.05368093,0.02916239,-0.11643842,0.15765822,0.24149467,-0.14692712,0.46967724,0.28097367,0.147404,-0.093182,-0.3364976,-0.65647495,-0.19211479,-0.09037904,-0.16774796,-0.06840742,-0.17627488,-0.09565467,0.04507925,-0.18238601,-0.15663451,-0.0601679,-0.27627364,-0.18429029,-0.36294925,-0.09739275,0.07628971,-0.02536974,-0.00753205,-0.01193727,-0.07688052,0.02077516,0.38046265,-0.11516873,0.11383214,0.17233358,0.17241114,-0.21988262,-0.24958779,-0.43453786,-0.02027046,0.01959474,-0.15516606,-0.17319724,-0.11962184,-0.03496952,-0.05730474,-0.16790505,-0.11201832,-0.29401258,-0.35727686,-0.20866044,-0.14281569,-0.06846203,-0.09939484,-0.08073252,-0.13680099,-0.02604118,-0.10792123,-0.13867025,0.09753644,-0.07667441,0.08968861,0.47351944,0.00090918,-0.39266345,-0.42375526,-0.06291521,0.08887541,0.11056007,-0.04956944,-0.11021292,-0.10826659,0.06512336,-0.07939601,-0.15083042,-0.17559069,-0.3452051,-0.34778666,-0.16334368,0.03190006,0.04031076,-0.19810461,-0.16796605,-0.09286386,-0.11161369,-0.03776334,-0.03405374,0.33740705,0.2621367,0.05863033,0.16801105,0.20352846,-0.23008822,-0.41685772,-0.38095123,0.10568319,0.06515694,0.09223569,0.03850596,-0.03431977,0.07585064,0.16281341,-0.01596531,-0.24508673,-0.23044924,-0.26367292,-0.00934991,-0.05039806,0.09644979,0.04503137,0.07145108,-0.01673992,0.03615154,0.37284011,0.28099307,0.35808754,0.0047865,0.03232842,-0.20384322,-0.14553654,0.39325362,0.03809122,-0.57436454,-0.00309078,0.05137698,0.14092144,0.153896,0.16004786,0.13367702,0.11829105,-0.10201474,0.08293612,-0.03677756,-0.11553083,-0.1065113,-0.20526704,0.01685655,0.06860317,0.10851341,0.11889188,0.16065413,0.42195028,0.32207164,0.44666314,0.29358241,0.08967569,-0.02418075,0.00437632,0.21938305,-0.05727134,-0.23695275,0.11857796,0.35916787,0.25479266,0.2629995,0.26089805,0.14519349,0.1902898,0.09080678,0.07242371,0.15840784,-0.02221888,0.00679489,-0.23844275,-0.10318098,-0.05446617,0.11936433,-0.03898495,0.09147167,0.18228713,0.26377341,0.20402525,0.36419198,-0.06783571,-0.09851401,-0.26281056,-0.05691272,-0.18851149,-0.1768734,0.13192241,0.16564178,0.49261731,0.44235426,0.10726083,0.13549852,0.1783399,0.10597772,0.21341403,0.15185887,0.03536958,0.00768639,-0.06049493,-0.05833311,0.02658408,0.00082324,-0.0892386,-0.06462236,0.04835422,0.04480141,0.2875157,0.28061524,0.44704181,0.09672581,-0.21967037,-0.09035295,-0.06144419,-0.08608978,-0.04510183,0.18838444,0.47579047,0.51471496,0.38970277,0.368819,0.14826328,0.17080358,0.36330289,0.26186788,0.21874782,0.08536507,0.10478297,0.00164377,0.00672683,-0.23363996,-0.17073366,-0.23981525,0.01433053,0.0201619,0.21478465,0.1789946,-0.45542043,0.11447936,0.02359662,-0.01921929,-0.1247801,-0.04372717,0.37339878,0.15971956,0.20326875,0.18582937,0.30072606,0.1812861,0.3117235,0.28756621,0.29592291,0.2755737,0.21446602,0.12581734,0.05803489,-0.1316427,-0.3099632,-0.39201087,-0.23625252,-0.24519913,0.04312419,0.10737363,0.11788732,-0.23278511,-0.63385427,-0.02203824,0.03305606,-0.00411318,0.13423455,0.02910144,0.42140824,0.27038914,-0.08930157,-0.0288045,0.04850315,0.02609351,0.12331276,0.18547013,0.3644774,0.28818944,0.11888552,0.20152411,-0.0527974,-0.08045314,0.01845795,-0.07625412,-0.18648773,-0.18218917,-0.29392335,-0.06534157,0.36609709,-0.54018939,-0.31421155,-0.0134632,0.01288233,-0.02190635,-0.32820365,0.37135145,0.5889107,0.39154559,-0.05537083,-0.01635174,0.1732676,0.01626123,0.0564261,0.25647783,0.18961677,0.09185582,0.15773183,0.17165144,0.13632865,0.10644517,0.15043707,0.29269242,-0.13481143,0.08601913,0.04414574,0.0754989,0.29836968,-0.09909016,-0.01949152,-0.01970495,-0.01511505,-0.02417338,0.03527122,-0.11681546,-0.15121719,0.16145746,0.18187755,0.32612124,0.35390311,0.43258131,0.447202,0.52542365,0.52559108,0.66245496,0.70238787,0.42744538,0.47996885,0.52437973,0.54068971,0.59159082,0.27241495,0.36171195,0.37872899,0.17291184,0.27038756,0.1461774,-0.03512301,0.00215856,-0.02999884,-0.02015585,0.02799363,0.03513746,0.27817896,0.2027739,0.38793775,0.45290649,0.47444898,0.19084655,0.69921494,0.35110706,0.21592781,0.82250428,0.73161942,0.36803454,0.15585494,0.61986411,0.17918152,0.13234651,-0.18946826,0.18980049,0.16874523,0.10654002,0.02390578,0.00373182,0.01270823,0.01222112],[0.00112654,0.00214692,-0.03547107,-0.01077214,-0.03478127,0.01592641,0.01433968,0.01229746,0.00900093,0.01368674,-0.03222566,0.03450662,0.09022069,0.0699244,-0.14977494,-0.13915366,-0.00718719,-0.02120013,-0.02696743,0.00127405,-0.01420273,0.03126891,0.02203042,-0.0308104,-0.03466384,-0.0055713,0.02209686,-0.02740938,-0.02440694,0.02793817,-0.00227101,-0.02557456,0.17048343,0.12140207,-0.18964569,-0.12806816,0.01740891,0.25952584,0.40312329,0.37781399,0.36130109,0.42853251,0.31107876,0.0536657,-0.1017055,0.12873365,0.4290871,0.19574323,0.06716695,-0.04142328,-0.07972235,-0.02637376,-0.01071432,-0.00590338,-0.02004554,0.02397065,0.02396969,0.00857828,-0.12826017,0.08400021,0.19024993,0.11400517,0.11562963,0.09345535,0.5475558,0.04241815,-0.13400491,0.01655271,0.15226744,0.28871807,0.42278755,0.35484692,0.18072569,0.07620473,-0.05222621,0.07083943,-0.12843272,-0.03526474,-0.06273279,-0.50294638,-0.26920056,-0.27023613,-0.01346507,-0.00878114,-0.01600581,-0.01523381,-0.27427739,0.03642457,0.10656705,-0.12146731,-0.08185877,-0.09897778,-0.12828468,-0.13956548,0.02195092,-0.0071689,-0.1043769,0.19911332,0.31474724,0.14823468,0.12015884,0.08714981,0.37100273,0.21067131,-0.09699043,0.20003748,0.46966764,0.48614097,-0.03070834,-0.36201012,-0.10760215,-0.01100819,0.01421909,-0.15295617,-0.37960243,-0.30965224,0.08118292,-0.2525554,-0.16012973,0.09229401,-0.04288481,0.14322881,0.20945071,0.09691386,0.17589489,0.0898563,0.11868567,0.15806089,0.19016576,0.20419249,0.04503737,0.13313708,0.25019577,0.15091771,0.27851918,0.69299752,0.51504081,0.27773827,0.36112803,0.44343513,-0.02117007,0.02701972,-0.18311422,-0.11830584,-0.22159317,-0.2754645,-0.0530025,0.10270785,0.05790852,0.16263947,0.18678305,0.23725519,0.1696624,0.10182845,0.08703001,0.03746618,0.07548159,0.21711361,0.09187952,0.21028563,0.19668348,0.22531946,0.11851253,0.16331889,0.48248637,0.22261764,0.40752894,0.39124689,-0.02036477,-0.15620424,0.12580344,-0.3400192,0.05258445,0.03380752,-0.12596327,0.10610028,0.17364424,0.12056069,0.03148404,0.0304695,0.1155637,0.04094096,-0.00260228,0.11493663,-0.00870527,0.10849287,-0.07350214,0.17759658,0.16724837,0.00834883,0.12766533,0.31397027,0.42493734,0.61694103,0.06209768,0.04663134,-0.04326739,-0.32278493,-0.04800228,-0.31314635,-0.1155173,0.02063918,-0.14893299,-0.02763807,0.16033845,0.12888134,0.20848878,0.04166427,-0.00440258,0.00137629,-0.02526082,0.09854248,-0.00892664,0.0091308,0.07074293,0.00101514,-0.00532003,0.0890867,0.13942917,0.24015267,0.34512731,0.4156372,0.12766297,0.06470901,0.13062294,-0.29640633,0.27512956,0.12163357,-0.12081505,-0.01330321,0.06722882,0.05869127,0.14776222,0.2067074,0.10377081,0.13933149,0.06842402,0.01856089,-0.12488306,-0.18746208,-0.1106886,-0.06565309,-0.01316502,-0.00876426,-0.05857849,0.00740567,-0.10146237,-0.01026793,0.51212853,0.5019471,0.40266281,0.3736527,-0.03185396,-0.13047059,0.21104218,0.00399041,-0.22685839,-0.19752589,0.07686411,0.06277063,0.2030421,0.20672424,0.08888523,0.13324976,0.02630192,-0.03413373,-0.33077782,-0.39136636,-0.19364376,-0.08142471,-0.12413347,-0.03986615,-0.03696226,0.03149142,-0.09593443,0.12210595,0.5031445,-0.04920629,0.01948401,-0.32004783,-0.02244425,-0.0042829,-0.0365693,0.03496949,-0.00818855,-0.25227803,-0.04414543,0.17597768,0.26724905,0.24190834,0.17002498,0.06984027,0.0873148,-0.21533456,-0.32942525,-0.23048508,-0.21832687,-0.20151009,-0.05166527,-0.06773797,-0.01004518,0.05773849,0.04824559,0.32421434,0.49513462,-0.3192358,-0.37943879,-0.3140361,-0.09755252,-0.07879701,-0.10999752,-0.15558296,-0.12693028,-0.10729159,0.10290027,0.2068463,0.20224775,0.18111297,0.0793203,-0.01244527,-0.00187527,-0.18521497,-0.16078144,-0.14126086,0.07753471,-0.02729131,-0.01837524,-0.00572052,-0.10951755,-0.02822362,-0.0582659,0.37543297,0.57817191,0.03699904,0.24188796,-0.35129312,-0.12596744,0.02776479,0.04654587,-0.06431346,-0.13400936,-0.01520986,0.22203715,0.13839433,0.01137945,-0.0024588,-0.03909978,0.04288759,-0.04461729,0.01499688,-0.16324756,0.06629837,0.08866377,0.06488799,-0.02903702,0.03101384,0.09943421,0.20874681,0.08633924,0.46772838,0.75521731,-0.20110434,-0.24014054,-0.48170492,0.16287868,0.17688833,-0.10671008,-0.16272748,-0.01079021,0.05150422,-0.00779719,0.12164833,0.082186,0.0293852,-0.09839018,0.07056991,0.11501041,0.04968438,0.00344564,0.21765505,0.0536092,0.01575099,0.00540366,0.14122649,0.14104065,0.25368199,0.39171067,0.26594484,0.06881688,-0.21939318,-0.49459442,-0.23634598,0.24239506,0.18112475,-0.10474365,-0.24071836,-0.01457161,0.08083014,-0.04907942,-0.04657478,0.06341619,0.02634919,0.10587283,0.25071287,0.20246542,0.2066199,0.17785065,0.10984904,0.05993093,0.05402593,-0.09769788,-0.03111059,-0.04376777,0.1354797,0.10151277,-0.21293275,-0.18457881,0.01940885,-0.60579109,-0.1502808,0.18361932,-0.14724642,0.22186421,0.02529198,-0.10243102,-0.09398504,-0.14992659,0.07310361,0.27529654,0.27272189,0.20603013,0.2777721,0.3205401,0.26838616,0.21072957,0.01817828,0.02883006,-0.06338453,-0.06155048,-0.05726733,-0.1565955,-0.03905844,-0.05429152,-0.13762577,-0.22689006,0.09788892,-0.17152981,-0.35447651,-0.07631346,-0.21010691,-0.2431902,-0.22836418,-0.50497419,-0.22463776,-0.07920966,-0.05195346,0.14968635,0.13802715,0.10972815,0.25118816,0.33102348,0.14743851,0.19021919,0.06293086,0.01095846,-0.11097176,-0.12370518,-0.17651695,-0.17282826,-0.1100153,-0.0333947,-0.2394527,-0.29237911,0.09124782,-0.21292089,-0.37530649,-0.012841,-0.28815484,0.02869855,-0.13796142,-0.4786953,-0.2841064,-0.14674371,-0.14426684,0.02981337,0.1231875,0.11783418,0.06256514,0.10931271,0.09934757,0.0730843,-0.01850819,-0.02989879,-0.1381584,-0.12925647,-0.14440335,-0.04079473,-0.04990254,-0.04304861,-0.09575392,-0.15500928,-0.31754515,-0.30412543,-0.32853636,-0.0542798,-0.23410821,-0.06299221,-0.16526179,-0.34121311,-0.21491033,-0.10565301,-0.16804186,-0.1030911,0.02550815,-0.12006605,0.00164081,0.10965486,-0.00334748,-0.06912898,-0.11207802,-0.14945926,-0.14063138,-0.17332934,-0.09932259,-0.07843873,-0.18735224,-0.20696446,-0.18481159,-0.11241512,-0.19659902,-0.22176751,-0.25841883,-0.11260001,-0.35938191,-0.1548031,-0.22015667,-0.22277853,-0.1886676,-0.07232465,-0.00063707,0.03815255,-0.01404499,-0.03445379,-0.05217763,-0.15272255,-0.16867389,-0.10123555,-0.05024004,-0.09556731,-0.06605522,-0.06712506,-0.04132447,-0.00117849,-0.01779796,0.00545019,-0.01321555,-0.13938557,-0.2354361,-0.07026851,-0.10249646,0.01138171,-0.02697285,-0.08457772,-0.04218646,-0.26501337,-0.14699818,-0.23760673,0.00602238,-0.01043398,-0.05781997,-0.01806414,-0.03520429,0.02261201,-0.06487017,-0.00753199,0.1154495,0.03595599,0.04642311,0.01446227,-0.01427108,0.04572468,0.08625838,0.00072986,-0.13794987,-0.153172,0.26743901,0.06790797,-0.0990725,-0.24409291,-0.31225282,-0.17630768,0.01532524,-0.15754604,-0.16825649,-0.15933372,0.00955585,0.01524541,0.16301155,0.10285641,0.17630643,0.07266065,0.08134118,0.09057508,0.11653352,-0.00652895,0.14769199,0.13003528,0.07492661,0.17365846,0.04178987,0.10986713,0.09115092,-0.05589397,0.17759542,-0.03554363,0.01391591,-0.2374606,-0.19184041,-0.23535039,-0.07704649,-0.07257582,-0.24920398,-0.10522695,-0.00257145,-0.05285041,0.05812434,0.11720934,0.23917249,0.19386627,0.21333551,0.15985616,0.05843931,0.08328082,0.13457119,0.21334742,0.19855249,0.06630839,-0.08150739,-0.0684595,0.1747957,0.02318576,0.11940491,0.30812764,-0.00850269,0.00946924,0.02693639,-0.0120644,-0.00915308,-0.2255587,-0.15351947,-0.11142915,-0.05802368,0.20009464,0.06864204,0.06724548,0.08630797,0.11979001,0.15878376,0.12881216,0.18801171,0.19027288,0.14339222,0.26045132,0.29728779,0.11704614,0.08394099,0.05932635,0.1188238,-0.3123619,0.10946488,-0.11905643,0.01645488,-0.01295209,0.01028434,-0.22136243,-0.13219345,-0.33738521,-0.0519684,-0.09187476,-0.0587662,0.1689768,0.16289011,0.11480229,0.22395401,0.21249311,0.12836713,0.10543244,0.05423943,0.15315789,-0.17552392,0.28547409,0.26940769,0.24781345,-0.19399042,0.13769177,0.44250181,-0.44338149,-0.01657621,-0.3054828,0.01707749,-0.00314231,0.02660753,0.15750669,0.21061704,-0.33701932,-0.28211817,-0.06749616,-0.02344114,-0.18640161,0.07675068,0.23546574,0.1171618,-0.11968078,-0.07389158,-0.0193758,0.00271578,-0.07418764,0.05984011,0.15430829,0.09820817,0.22005057,0.08661357,0.33777568,0.54811972,-0.13467847,0.12581892,0.03393615,-0.0314629,-0.0066735,0.01396187,-0.02692445,0.09132232,0.51221532,0.33733562,0.18175748,0.14525367,0.18350403,0.15107247,0.0293566,0.1613546,0.12162165,-0.11966161,0.01011693,-0.22236557,-0.17364724,-0.11888637,-0.07082754,-0.39397767,-0.21719226,-0.24083558,-0.16263565,0.1902388,-0.23907918,-0.00870893,-0.02272624,-0.00615386,-0.01626719,-0.02848137,-0.02979998,-0.02891387,-0.17071803,-0.12106281,0.1531193,0.12619932,0.13985784,0.15140554,-0.15082806,0.23203839,0.21722341,-0.11950624,-0.02502822,0.03081781,-0.19369866,-0.20785396,0.14200528,0.02290377,-0.2484563,-0.40167949,-0.43111956,-0.19447246,0.0107628,0.03294392,-0.01365808,0.0128582],[0.00190417,0.00137124,-0.02090672,-0.01300077,-0.01608787,0.02047363,-0.03488969,0.01850402,0.00396003,-0.02341208,0.0012682,-0.0027123,0.17673747,0.21661215,-0.01072722,-0.04919322,0.00733575,-0.02443073,-0.0267394,-0.03325211,-0.00449087,0.0293559,-0.00416969,0.00212455,-0.01832121,-0.01203196,0.03346926,-0.01160405,0.03380511,-0.00289997,0.01298837,0.03477318,0.23720407,0.24181794,0.35855433,0.31922618,0.29674476,0.375691,0.44558313,0.19177343,0.34771639,0.11452341,-0.17467956,0.48087049,0.57024068,0.72807324,0.65592813,0.46185425,0.44017202,0.22185192,0.28789616,0.27248958,-0.00028435,-0.00371823,0.02972133,0.00719967,0.01771488,0.00156511,0.23756583,0.40275118,0.4054496,0.34853283,0.4334096,0.54528987,0.80210054,0.71765137,0.6342178,0.94726348,0.57904941,-0.08853763,-0.04557824,0.29129905,0.14691167,0.18782492,0.16290615,0.34979358,0.41514039,0.6136741,0.59171641,0.63893259,0.32404095,0.07042602,-0.02243586,0.01288442,0.03508049,0.00884312,0.06187573,0.43249881,0.02945683,0.13671292,0.38558623,0.16577017,0.33104649,0.64316928,0.36160257,0.30243203,0.32780281,0.35843104,0.14479907,0.02961876,-0.03070095,-0.07700018,0.01056443,0.13203223,0.04628748,0.33328712,0.35868698,0.27145758,0.00028146,-0.18996586,0.13472764,0.01069672,0.00752436,-0.08994997,-0.35881698,-0.1569276,-0.22641705,0.1416591,0.17151633,0.02334066,0.10402707,0.11702149,0.15959406,0.00044292,-0.02662607,-0.02602424,0.00443069,-0.10319407,-0.03086984,0.09789394,-0.0273319,-0.00746712,-0.05204283,-0.1667452,-0.3767595,-0.30011794,-0.47155249,-0.33946446,-0.16890849,0.2097823,0.03015077,0.000812,0.32519808,0.0138405,-0.05394926,-0.30400833,-0.22472355,-0.14315048,-0.0246321,0.01348774,0.1609558,-0.18789648,-0.11672547,0.06105126,0.23996091,0.0348307,0.03740541,-0.03572395,-0.06599148,-0.02183803,-0.06498853,-0.15388255,-0.42793098,-0.29670736,-0.26345736,-0.15187569,0.08675627,0.22266813,0.00641843,0.0566897,0.33601323,0.1424433,-0.04623201,-0.17416121,-0.08894175,-0.05172922,-0.07079224,-0.10517896,-0.06070993,0.02999547,0.02869141,0.04893666,0.05229056,0.11594643,0.0528778,-0.13042152,-0.29672435,-0.33563876,-0.34670722,-0.26704568,-0.34263369,-0.47419581,-0.20705499,-0.0481737,0.03579641,0.16030103,-0.00037332,-0.029092,0.2761822,-0.32793358,-0.25705886,-0.22205551,-0.22509255,-0.07197523,-0.06967739,-0.09937479,0.01852366,0.1588354,0.04708725,-0.04375837,0.04199162,0.00521416,-0.07882243,-0.21198401,-0.34554309,-0.41447449,-0.50919265,-0.41478249,-0.64014739,-0.5285241,-0.07984611,-0.09215359,-0.00730564,0.22351561,0.07900532,0.322,0.36294222,-0.35324252,-0.43394727,-0.16875833,-0.19417205,-0.09929146,-0.13948496,-0.03853811,-0.0310252,0.00036331,0.0468351,0.07433295,0.11992329,-0.09450321,-0.34549427,-0.32528651,-0.64055926,-0.52768683,-0.2653555,-0.4696292,-0.48695391,-0.50216746,-0.54807287,-0.48787889,-0.45242673,-0.20068616,0.04254052,-0.33986071,0.32004362,-0.08285187,-0.3010138,-0.05404131,-0.17688571,0.07772488,0.11377235,-0.01204265,-0.0517648,-0.03707818,0.09413026,0.17207043,0.28959194,-0.00091134,-0.33633432,-0.49887335,-0.55414987,-0.41129076,-0.167768,-0.14565924,-0.26146844,-0.16801104,0.03586093,-0.25332719,-0.52043355,-0.40721628,0.03865371,-0.21318822,0.06960177,-0.07014535,-0.37199432,0.0581651,0.05980306,0.1378998,0.06693296,0.02198418,0.12265836,0.12816283,0.12972887,0.19766721,0.21587341,0.00930533,-0.17228962,-0.14755459,-0.21282016,-0.09270237,-0.04999416,0.09996714,-0.06246563,-0.05240474,0.14333227,-0.17451489,-0.17311683,-0.41459915,0.07234662,0.07634115,-0.27795768,-0.35800895,-0.28765628,0.02968894,0.06620041,0.09970893,0.00433835,-0.00127822,-0.06908272,-0.03965326,-0.09525081,0.00667243,0.07106961,-0.14374556,-0.0909092,-0.05810022,0.02368974,0.14721075,0.06461685,0.29021955,0.00812122,-0.01975345,0.07769793,-0.14734074,-0.64021713,-0.23103654,-0.01443568,0.09195995,0.1145386,-0.35382801,-0.26050627,-0.11426488,-0.18233564,-0.08193605,-0.03397835,-0.08893521,-0.13623694,-0.04454112,-0.08694103,0.03156791,0.13524136,-0.04497953,-0.03763403,-0.03258317,0.02139051,0.00364464,0.10229536,0.20142505,0.13625111,-0.01628623,0.29223338,0.09799957,-0.40650263,-0.18967642,0.21051429,0.05402771,0.31379509,0.05897383,-0.18024054,-0.19970483,-0.30402389,-0.29421818,-0.11597194,-0.20661595,-0.09600507,-0.16680063,-0.06819145,0.12438609,0.16553314,0.15388404,0.03213609,0.06370083,0.05145228,0.13649927,0.00177468,0.16998616,0.23914629,0.36615697,0.42320052,0.09108539,0.15799381,0.34214213,0.27133834,-0.33610305,-0.1786982,0.1409595,-0.37510878,-0.24019575,-0.26493019,-0.18907195,-0.25843748,-0.13207537,-0.15596944,-0.10667673,-0.08223331,0.00069401,0.1593851,0.10252187,0.0066112,-0.14155799,0.095046,0.07294165,0.03316319,0.14269553,0.33379486,0.21069525,0.32603857,0.12504339,0.04953083,0.40237609,0.25972608,-0.27718967,-0.22257639,0.18838683,-0.12259243,-0.08081931,-0.13161068,-0.04071397,-0.11162466,-0.05113516,-0.00682443,0.05558702,0.06413363,0.08809005,0.12875162,0.01916875,0.00305532,0.00030708,0.09032953,0.05049435,0.05034135,0.21210805,0.1037978,0.16040392,0.49047354,0.35665795,-0.3095088,0.31449062,-0.05661841,-0.35267925,0.02753658,0.27088353,0.0187805,0.10362512,-0.06322218,0.05766123,-0.02897606,0.11062266,0.18843129,0.30384219,0.13052772,0.13718325,0.16007046,0.11018459,0.02002761,0.03154749,0.11530607,0.18306597,0.15934753,0.2071899,0.15703055,0.3361012,0.27452844,0.41259971,0.07929782,-0.02299389,0.00448407,-0.20705466,0.27368629,0.2211781,0.02546818,0.0474097,-0.04955493,-0.04700316,0.08256472,0.07902686,0.05921873,0.16710328,-0.00597931,0.06028796,0.08634171,0.05021388,0.00975306,0.06959075,0.16424993,0.15577912,0.16736999,0.13560189,0.12639418,0.12712964,0.14629588,0.57517081,0.07160767,0.30679047,-0.0237471,-0.12894727,-0.0055415,0.10921282,0.0234334,0.05869422,-0.02047629,0.02303656,0.01787646,0.0205167,0.01162984,-0.04364029,0.27727291,0.14145185,0.19155075,0.10854705,0.1474801,0.16240999,0.23467758,0.14945729,0.02635313,0.06712362,0.09207,0.19049552,0.44844431,0.52005285,0.11362638,0.44692716,0.0730757,0.2637372,0.03794704,-0.26124755,-0.03343993,0.08149637,-0.00649097,0.03625589,0.00231899,0.10006668,0.16959359,0.25352213,0.28003559,0.25287238,0.25646916,0.31750974,0.1831146,0.17174666,0.14366247,0.12777837,0.09981749,0.12355854,0.22255515,0.15259957,0.05562415,0.14283898,0.53484267,0.24286382,0.0347424,-0.1132194,0.21147791,-0.01518657,0.32795557,0.28690165,0.02494925,0.05756543,-0.01429738,0.14894168,0.17649494,0.27785879,0.3148731,0.11054201,0.23018074,0.13684462,0.03896084,-0.04754749,0.24268287,0.06771734,0.06470103,0.06568148,0.1270712,-0.04468541,-0.17295088,-0.33526346,0.58908069,0.15865313,0.15152654,0.04556404,0.14405923,0.29323849,0.4138597,0.3967894,0.0044093,-0.01609623,-0.00929616,0.20638008,0.1959568,0.17042437,0.2324575,0.24957168,0.24587081,0.12955634,0.05202573,0.1175153,0.14168933,0.0138073,-0.09736153,-0.17639014,-0.01329548,-0.01691298,-0.36293694,-0.04651968,0.37389874,0.07613809,0.1776704,-0.0828094,0.18893959,0.19696294,0.37966439,0.24944222,-0.06314089,-0.00100603,0.07407733,0.22231661,0.21808432,0.11510898,0.15868638,0.13405108,-0.0894332,0.13314897,-0.04347646,-0.17201191,-0.13284566,0.05507951,-0.17353287,-0.28213152,-0.43427691,-0.24138287,-0.48086414,-0.14365521,-0.26746979,0.07351749,-0.0315556,0.02531125,0.14238401,-0.14181551,0.00550079,-0.03220426,-0.1117691,-0.11630437,-0.06283095,0.09492496,-0.01532733,0.10804299,0.07767792,-0.11435245,-0.17695212,-0.120744,-0.22053777,-0.38467997,-0.33721676,-0.16364092,-0.36465809,-0.29550624,-0.13945538,-0.19118677,-0.4834199,-0.18089148,-0.01470128,-0.01647783,0.01056007,0.03503399,-0.18948925,-0.48987576,-0.39572537,-0.11451921,-0.06084207,-0.26979387,-0.45154166,-0.11194858,-0.28183234,-0.17011628,-0.25960341,-0.4908458,-0.40111533,-0.45107153,-0.49144745,-0.44798255,-0.72468555,-0.89541364,-0.79459006,-0.40589604,-0.35575068,-0.49138728,-0.11702763,0.5784682,0.343795,-0.01937143,-0.02446554,-0.0019617,0.01365699,-0.04679094,-0.16765168,-0.29685703,0.22249737,0.12520368,-0.42432213,-0.3346808,-0.32336721,-0.35450774,-0.49602503,-0.92393595,-0.88485837,-0.88570553,-0.86440927,-0.86524487,-1.10450292,-1.1475172,-0.91343945,-0.57130867,-0.28908184,-0.43642449,-0.51319891,-0.02307988,0.03095485,-0.02524695,0.02682592,-0.00629769,-0.0103663,-0.06703947,-0.075626,-0.17381315,-0.17119518,-0.42599878,-0.11571638,-0.13806549,-0.12523974,-0.16825747,-0.31997561,-0.23584494,-0.65664095,-0.71782857,-0.26978144,-0.38962427,-0.34691471,-0.44890249,-0.51210696,-0.4214063,-0.44259053,-0.40279987,-0.02440934,-0.03159958,-0.03422436,-0.01281515,-0.03162213,0.02353569,0.00360206,0.00376666,0.05788354,0.00974617,0.08141075,0.07422639,0.17035714,0.17203739,-0.06777453,-0.07829534,0.02558032,-0.12533954,-0.14745073,-0.03929253,-0.02830355,-0.05387859,-0.04389355,-0.05304044,-0.04426122,-0.09503443,-0.06059555,-0.04468448,-0.02089594,0.01038475,-0.00921784,0.02035034],[0.0042031,0.00442443,0.0231823,0.01741014,-0.01155008,0.00026135,-0.02326046,0.02961003,-0.00120285,0.00508527,0.01200934,-0.02067093,0.01481122,0.01690951,0.02913039,0.03463719,-0.0296303,-0.00555299,-0.011713,0.02314865,0.02968368,-0.01704884,0.00039271,-0.02514517,6.84e-05,0.00953722,-0.03255565,-0.0272825,-0.01655737,-0.02208327,-0.03467835,-0.00933952,-0.04514026,-0.02873683,-0.12642536,-0.18457763,-0.11776509,-0.12385124,-0.14523357,-0.3212373,-0.29471892,-0.26329651,-0.07926027,-0.35497585,-0.46836784,-0.44691619,-0.1687011,-0.17907076,-0.16129912,-0.13176507,-0.21669304,-0.2330503,0.02936913,-0.00709117,0.00213701,-0.0296652,0.02279638,0.03079546,-0.01485342,-0.21580133,-0.16798273,-0.04547139,-0.15383627,-0.32375798,-0.25087491,-0.32831058,-0.40188208,-0.457412,-0.56163186,-0.48692706,-0.43447337,-0.44540164,-0.58981025,-0.48397654,-0.63521808,-0.41013345,-0.24562153,-0.06785915,-0.2320805,-0.30483049,-0.05615247,-0.04869657,-0.02906848,-0.01669022,0.00512858,0.02316142,0.3009533,-0.21941946,-0.26484606,-0.01188979,-0.13000274,-0.66436481,-0.93532807,-0.87246996,-0.91333193,-0.94732237,-0.75118679,-0.6307416,-0.6407702,-0.84531343,-0.44606334,-0.33420125,-0.39214835,-0.43493751,-0.52463341,-0.45301384,-0.11969426,0.02053345,0.02314783,0.15330726,-0.01737016,-0.02437462,-0.02058683,0.01823279,0.24741732,0.078433,0.04052472,-0.40521067,-0.27548581,-0.35876417,-0.2499841,-0.38335142,-0.4339698,-0.34526497,-0.20149696,-0.28175175,-0.45428252,-0.3994402,-0.08580997,-0.16412024,-0.28016087,0.00066784,-0.33422261,-0.24184738,-0.40805003,-0.32961524,-0.4153837,-0.42548808,-0.41697308,-0.03501423,0.0279927,-0.01212771,0.1080928,0.0374923,0.08530812,0.19563183,0.14995007,-0.09075761,0.1813162,0.03885536,-0.1107299,0.06358254,0.17986692,-0.0316871,0.01235268,0.1247539,0.02574378,-0.13536862,-0.05886906,-0.19603094,-0.44445676,-0.32419235,-0.34433845,-0.29039109,-0.41062248,-0.41163474,-0.51465213,-0.13272308,-0.01966451,-0.22917596,-0.01504165,0.28537506,-0.03140368,0.15498941,0.21404012,0.1415351,0.18886067,-0.0409079,-0.12626708,0.14295806,0.13652645,-0.01703969,0.07689444,0.03958931,0.17317936,0.21363159,0.05782398,-0.13684475,-0.14345485,0.21709979,-0.04528745,0.0269883,-0.24383588,0.05012668,-0.36328992,-0.35949138,0.02415605,-0.02261606,0.38110477,0.42221898,0.0548779,-0.08958519,0.11748005,0.15574121,0.05413524,0.11311864,0.05597093,0.07721714,0.16693889,0.17041177,0.19868682,0.15363224,0.24530572,0.26375961,0.1469235,0.00751787,0.07486513,0.003558,-0.1816372,-0.15215737,-0.11327239,-0.0996823,0.15905717,-0.15303163,-0.40728307,0.49019635,0.16321914,0.23774859,0.27526936,0.05235039,0.08801245,0.12169322,0.15604046,0.05218918,0.02644117,0.03169492,0.02583503,0.09014003,0.22019267,0.27876151,0.03136512,0.01785504,0.03925111,-0.11992,-0.0971909,-0.13853079,-0.11878586,0.13210855,-0.10118259,-0.08705627,-0.02596726,-0.25793901,0.23278995,0.68522757,0.35502455,0.12295198,0.17555846,0.18002431,0.01787359,0.0041202,0.00953337,-0.13447259,-0.10499712,-0.03198682,-0.01787375,-0.03476896,0.22962958,0.30537114,-0.01540129,0.10094894,0.00969129,-0.13606036,-0.15415302,-0.21389338,0.00227632,0.02554324,-0.04700898,-0.33531138,-0.1155348,-0.19178757,0.24701698,0.66466147,0.17610505,0.00021618,-0.02237728,0.1419981,0.04112273,-0.04253739,-0.08131706,-0.00452257,-0.05913867,-0.0395789,-0.09273816,-0.00699561,0.23017004,0.340139,0.13461879,0.10685781,-0.06860794,-0.15695581,-0.2236561,-0.02827258,0.16739142,0.00505734,-0.14144136,0.06014007,-0.35856,-0.01049051,0.45130497,0.30631426,0.42743978,0.24770276,0.10035691,-0.01297322,-0.03967864,0.24454752,0.06994011,0.03367208,0.11917499,0.10395919,0.01834273,-0.1744031,0.16487996,0.25263435,0.18931165,0.11781809,0.02275196,-0.11918354,0.0443012,0.10384282,0.14723806,-0.08787036,-0.42213547,-0.30230433,-0.43667036,0.33546561,0.3306835,0.55859274,0.27177271,0.29479036,0.1334682,0.09671558,0.08151063,0.22691393,0.1841771,0.03098085,0.01824022,-0.03146831,-0.1817026,-0.28077969,0.04134363,0.18024959,0.24418667,0.08501238,0.11540844,-0.03075537,-0.12386969,0.09355723,0.30625623,-0.03695015,-0.26982853,-0.21003762,-0.12325831,0.44041637,0.12466356,0.27221283,0.61143064,0.15738043,0.15400229,0.10003438,0.20978872,0.09056266,0.07784945,0.07177077,0.15272532,0.02170242,-0.28252271,-0.23240329,0.11837126,0.12741743,0.09505096,0.06873166,-0.00968404,-0.11138678,0.13633174,0.27313721,0.2592077,-0.03799099,0.0105779,0.13648732,0.42672017,0.30914861,-0.21847874,0.21911508,0.69190228,0.19542301,0.0264131,0.13405164,0.12444004,-0.01080515,0.03724539,0.15735854,0.32066512,0.00331913,-0.19152845,-0.03034389,0.12161704,0.13271733,0.09999076,0.10201691,0.15448558,0.23273182,0.19861893,0.23699255,0.26787257,0.24227528,-0.1165951,0.1684541,0.184349,0.23178864,-0.19087079,0.00781201,0.34655705,0.07888886,-0.01103051,-0.09782255,-0.00112336,0.01945208,-0.00415575,0.0090549,0.03156994,-0.12849264,-0.21080379,-0.0372944,0.1002863,0.14910355,0.14579561,0.19373737,0.17591214,0.13961338,0.15317528,0.20017202,0.25349793,0.07231725,-0.24528207,-0.424936,-0.28979433,0.08997644,0.28391331,-0.03162093,0.13207863,-0.26371267,0.0645161,-0.07489675,0.05180252,0.23900992,0.02383316,-0.03382057,-0.27153683,-0.37570468,-0.21241821,-0.04191586,0.08460136,0.19187926,0.09818288,0.06119568,-0.03349272,-0.02894846,0.04296636,0.04773025,-0.04287393,0.00439189,-0.0999001,-0.56923252,-0.39914191,-0.1017156,-0.00040659,0.03690187,0.07781074,-0.12639183,0.20717521,0.15438181,0.10622654,-0.08243552,-0.20121156,-0.29733419,-0.50872934,-0.4698737,-0.15795623,0.07685967,0.19564475,0.10664307,-0.05410201,-0.11140258,0.08630184,-0.17098927,-0.06795823,-0.17242885,-0.26604268,-0.00480068,0.19569471,0.07388578,-0.00314971,-0.11923975,-0.12211099,-0.00405045,0.19194663,-0.0473808,0.21763602,0.05749514,-0.12389325,-0.26402077,-0.33506134,-0.41342112,-0.57314527,-0.29270375,-0.081501,0.14220837,0.08840489,-0.05144697,-0.26292849,-0.25638595,-0.07434709,-0.21933667,-0.14856412,-0.37063468,-0.32536227,-0.31359202,-0.14682487,-0.45020497,0.16384201,0.25889665,0.07838508,0.35311523,0.19905508,-0.14025159,0.02150916,-0.27763906,-0.26701114,-0.47649646,-0.43524024,-0.52674496,-0.47694173,-0.16750488,0.00877412,0.23318571,0.19283186,-0.03550982,-0.27455214,-0.25786293,-0.34088516,-0.23854785,-0.19381069,-0.30660084,-0.76907569,-0.57872754,-0.46241894,-0.30505994,-0.06164432,0.32412362,0.02215113,0.01065465,-0.00865933,-0.54381955,-0.28168985,-0.75707704,-0.64171118,-0.67980522,-0.50839365,-0.36695427,-0.07446381,0.07574823,0.23421077,0.25437194,0.21088047,0.09133695,-0.06170528,-0.11876605,-0.28424737,-0.23841482,-0.30103981,-0.26885343,-0.57963467,-0.37428722,-0.14586654,-0.23741725,-0.0829167,0.12332159,0.26363024,-0.08659735,-0.20659252,-0.57058126,-0.27837443,-0.511769,-0.51833463,-0.60549742,-0.17434351,0.02875659,0.18368918,0.09486119,0.14945845,0.1379278,0.18438852,0.20444928,0.12839125,-0.05401509,-0.16078897,-0.22899507,0.03092289,0.10264014,-0.31525695,-0.20721413,0.16085321,0.2800861,-0.36708984,0.01014432,0.26735798,0.1800634,-0.10278928,-0.47778586,-0.2758134,-0.51689279,-0.45145786,-0.39026332,-0.08985084,0.02478737,0.10333782,-0.06452837,0.08801441,0.0421765,0.28355485,0.1847087,0.19405097,0.01030476,-0.11496704,-0.09306993,-0.28098592,-0.21772105,-0.22419475,-0.05451336,0.40900469,0.31037214,0.08250757,0.00230149,0.03439006,0.02764782,-0.19281469,-0.55380112,-0.5165692,-0.54023588,-0.28305519,-0.23182672,-0.43535849,-0.14497715,-0.08993538,-0.04266494,0.03041628,0.0468983,0.08167109,0.13971174,0.09752303,0.15951641,-0.10264016,-0.16323905,-0.48317623,-0.15347473,0.02577391,0.02374923,-0.08120017,0.19276114,0.37855682,0.0325648,-0.02371234,-0.0213078,0.16454141,-0.07163768,-0.22459431,-0.11241057,-0.03155789,-0.17220265,-0.20660935,-0.15687481,-0.12050089,-0.0982939,-0.14830163,-0.18473864,-0.11268958,-0.04028853,-0.10683353,0.1051731,0.06195898,0.10705999,-0.05335956,0.1439492,-8.362e-05,0.01385913,0.07950632,0.00620349,0.32113543,0.00634617,-0.00913219,0.01499468,-0.12114291,-0.1047644,-0.03454455,-0.09569921,0.03638404,0.05015784,0.23834379,0.14621727,-0.03066602,0.09249908,0.03500539,-0.03290224,0.08673353,0.02554904,-0.09309307,-0.05234952,0.08291139,-0.14454453,-0.04964215,-0.08521822,-0.06024068,-0.13813436,-0.04487042,-0.03350454,-0.00426017,-0.02095942,0.00497725,-0.00204889,0.02403873,-0.07546064,-0.38971224,-0.37529212,0.05189638,0.18560478,0.35273284,0.40573031,0.23553061,0.07615361,0.09212428,0.04082176,0.07722714,0.22059177,0.20382771,0.17328279,0.19574647,0.13888003,-0.1623719,0.06683867,0.18476509,-0.19094504,0.01112928,0.26489165,0.02626459,0.02237539,0.01004931,-0.00897478,0.02198681,0.03403738,0.31554434,0.33340654,-0.0711814,-0.17825882,-0.12959191,-0.12599102,0.06058503,-0.16641551,-0.10534599,0.68315691,0.25553992,0.1212767,0.17726241,0.43634608,0.14200193,0.38455805,0.06493518,0.41466731,0.35850859,0.19221321,-0.01749032,0.03265148,0.00848107,0.00720393],[0.0116459,-0.02660961,-0.01051642,-0.00269704,0.03199012,-0.02249872,0.01378912,0.00434144,-0.00602313,-0.00488319,0.01328793,-0.03523622,0.00542789,-0.00881167,-0.10683162,-0.05328795,0.00296481,0.01976581,0.02388767,0.02845523,0.01484224,0.01709901,-0.01693236,0.00816708,0.01213273,0.01978367,0.02975775,0.02055456,-0.03332348,0.00123394,-0.01767793,0.02433987,-0.07456361,-0.08722942,-0.12960923,-0.17464265,-0.0664399,0.05975711,0.11838104,-0.08961,-0.04652885,0.08739218,0.0978052,-0.23490347,-0.16162701,-0.01883045,0.11804093,-0.1119686,-0.0690805,0.02205147,-0.06054956,-0.21496417,0.03339046,0.02721641,0.00193422,-0.03258704,0.0186593,-0.02039123,-0.09595195,-0.32745579,-0.25165543,0.13990659,0.21134856,0.01364155,0.34095952,0.07674181,-0.05138674,-0.05142213,-0.0923317,-0.34649232,-0.03532897,-0.07481921,0.03222933,0.29559481,0.1080795,0.04819799,-0.07163611,-0.05201461,-0.19824363,-0.29531989,-0.22654369,-0.22450061,-0.00456187,0.01001652,0.02312833,-0.0173727,-0.2207996,-0.25538251,0.36575195,0.32093671,0.1649027,-0.11845001,-0.20163192,-0.15789649,0.06450493,-0.07593803,-0.09783927,-0.22304347,0.05328524,0.04445805,-0.07747019,0.05420983,0.0758311,0.06021321,0.22677854,0.31393719,0.36518842,0.25293601,0.26445454,0.21290033,0.328199,-0.02354648,-0.01154532,-0.02476254,-0.3837797,0.09386194,-0.19685063,-0.24409483,-0.2213048,-0.20002295,-0.43829733,-0.27068174,-0.13066652,-0.0418956,-0.14957879,-0.22857709,-0.11916839,0.05472817,0.0122586,0.10370184,0.12167596,0.02361785,0.07817804,0.27373075,0.15961756,0.46680745,0.61686015,0.17189981,-0.03875177,0.09116846,-0.01718738,-0.00289226,-0.47715682,-0.10910346,-0.29348698,-0.15352532,-0.05873458,-0.08896323,0.11927284,0.21572533,0.00378403,-0.07105115,-0.14355806,-0.25404337,-0.14429785,-0.12933037,0.06781344,0.12841423,0.00398222,-0.01193216,0.03846737,